digraph Tree {
node [shape=box, style="filled, rounded", color="black", fontname="helvetica"] ;
edge [fontname="helvetica"] ;
0 [label=<domain_registration_length &le; 0.0<br/>gini = 0.494<br/>samples = 5580<br/>value = [3942, 4902]<br/>class = Phish>, fillcolor="#d8ecfa"] ;
1 [label=<having_ip_address &le; 0.0<br/>gini = 0.463<br/>samples = 3719<br/>value = [2147, 3742]<br/>class = Phish>, fillcolor="#abd5f4"] ;
0 -> 1 [labeldistance=2.5, labelangle=45, headlabel="True"] ;
2 [label=<links_pointing_to_page &le; 0.5<br/>gini = 0.495<br/>samples = 1272<br/>value = [909, 1113]<br/>class = Phish>, fillcolor="#dbedfa"] ;
1 -> 2 ;
3 [label=<url_of_anchor &le; -0.5<br/>gini = 0.45<br/>samples = 444<br/>value = [451, 235]<br/>class = Legit>, fillcolor="#f3c3a0"] ;
2 -> 3 ;
4 [label=<gini = 0.0<br/>samples = 190<br/>value = [289, 0]<br/>class = Legit>, fillcolor="#e58139"] ;
3 -> 4 ;
5 [label=<prefix_suffix &le; 0.0<br/>gini = 0.483<br/>samples = 254<br/>value = [162, 235]<br/>class = Phish>, fillcolor="#c1e1f7"] ;
3 -> 5 ;
6 [label=<submitting_to_email &le; 0.0<br/>gini = 0.498<br/>samples = 221<br/>value = [162.0, 184.0]<br/>class = Phish>, fillcolor="#e7f3fc"] ;
5 -> 6 ;
7 [label=<shortining_service &le; 0.0<br/>gini = 0.411<br/>samples = 53<br/>value = [24, 59]<br/>class = Phish>, fillcolor="#8ac5f0"] ;
6 -> 7 ;
8 [label=<gini = 0.0<br/>samples = 17<br/>value = [0, 27]<br/>class = Phish>, fillcolor="#399de5"] ;
7 -> 8 ;
9 [label=<having_sub_domain &le; 0.5<br/>gini = 0.49<br/>samples = 36<br/>value = [24, 32]<br/>class = Phish>, fillcolor="#cee6f8"] ;
7 -> 9 ;
10 [label=<sslfinal_state &le; 0.0<br/>gini = 0.366<br/>samples = 17<br/>value = [22, 7]<br/>class = Legit>, fillcolor="#eda978"] ;
9 -> 10 ;
11 [label=<abnormal_url &le; 0.0<br/>gini = 0.165<br/>samples = 12<br/>value = [20, 2]<br/>class = Legit>, fillcolor="#e88e4d"] ;
10 -> 11 ;
12 [label=<gini = 0.0<br/>samples = 7<br/>value = [13, 0]<br/>class = Legit>, fillcolor="#e58139"] ;
11 -> 12 ;
13 [label=<url_length &le; 0.0<br/>gini = 0.346<br/>samples = 5<br/>value = [7, 2]<br/>class = Legit>, fillcolor="#eca572"] ;
11 -> 13 ;
14 [label=<gini = 0.0<br/>samples = 4<br/>value = [7, 0]<br/>class = Legit>, fillcolor="#e58139"] ;
13 -> 14 ;
15 [label=<gini = 0.0<br/>samples = 1<br/>value = [0, 2]<br/>class = Phish>, fillcolor="#399de5"] ;
13 -> 15 ;
16 [label=<statistical_report &le; 0.0<br/>gini = 0.408<br/>samples = 5<br/>value = [2, 5]<br/>class = Phish>, fillcolor="#88c4ef"] ;
10 -> 16 ;
17 [label=<gini = 0.0<br/>samples = 1<br/>value = [1, 0]<br/>class = Legit>, fillcolor="#e58139"] ;
16 -> 17 ;
18 [label=<url_length &le; 0.0<br/>gini = 0.278<br/>samples = 4<br/>value = [1, 5]<br/>class = Phish>, fillcolor="#61b1ea"] ;
16 -> 18 ;
19 [label=<page_rank &le; 0.0<br/>gini = 0.32<br/>samples = 3<br/>value = [1, 4]<br/>class = Phish>, fillcolor="#6ab6ec"] ;
18 -> 19 ;
20 [label=<gini = 0.0<br/>samples = 1<br/>value = [0, 1]<br/>class = Phish>, fillcolor="#399de5"] ;
19 -> 20 ;
21 [label=<request_url &le; 0.0<br/>gini = 0.375<br/>samples = 2<br/>value = [1, 3]<br/>class = Phish>, fillcolor="#7bbeee"] ;
19 -> 21 ;
22 [label=<gini = 0.0<br/>samples = 1<br/>value = [1, 0]<br/>class = Legit>, fillcolor="#e58139"] ;
21 -> 22 ;
23 [label=<gini = 0.0<br/>samples = 1<br/>value = [0, 3]<br/>class = Phish>, fillcolor="#399de5"] ;
21 -> 23 ;
24 [label=<gini = 0.0<br/>samples = 1<br/>value = [0, 1]<br/>class = Phish>, fillcolor="#399de5"] ;
18 -> 24 ;
25 [label=<popupwindow &le; 0.0<br/>gini = 0.137<br/>samples = 19<br/>value = [2, 25]<br/>class = Phish>, fillcolor="#49a5e7"] ;
9 -> 25 ;
26 [label=<gini = 0.0<br/>samples = 11<br/>value = [0, 13]<br/>class = Phish>, fillcolor="#399de5"] ;
25 -> 26 ;
27 [label=<links_pointing_to_page &le; -0.5<br/>gini = 0.245<br/>samples = 8<br/>value = [2, 12]<br/>class = Phish>, fillcolor="#5aade9"] ;
25 -> 27 ;
28 [label=<gini = 0.0<br/>samples = 4<br/>value = [0, 6]<br/>class = Phish>, fillcolor="#399de5"] ;
27 -> 28 ;
29 [label=<sslfinal_state &le; 0.0<br/>gini = 0.375<br/>samples = 4<br/>value = [2, 6]<br/>class = Phish>, fillcolor="#7bbeee"] ;
27 -> 29 ;
30 [label=<gini = 0.0<br/>samples = 2<br/>value = [2, 0]<br/>class = Legit>, fillcolor="#e58139"] ;
29 -> 30 ;
31 [label=<gini = 0.0<br/>samples = 2<br/>value = [0, 6]<br/>class = Phish>, fillcolor="#399de5"] ;
29 -> 31 ;
32 [label=<having_sub_domain &le; 0.5<br/>gini = 0.499<br/>samples = 168<br/>value = [138, 125]<br/>class = Legit>, fillcolor="#fdf3ec"] ;
6 -> 32 ;
33 [label=<url_of_anchor &le; 0.5<br/>gini = 0.396<br/>samples = 94<br/>value = [110.0, 41.0]<br/>class = Legit>, fillcolor="#efb083"] ;
32 -> 33 ;
34 [label=<links_in_tags &le; -0.5<br/>gini = 0.341<br/>samples = 83<br/>value = [104, 29]<br/>class = Legit>, fillcolor="#eca470"] ;
33 -> 34 ;
35 [label=<having_sub_domain &le; -0.5<br/>gini = 0.031<br/>samples = 38<br/>value = [62, 1]<br/>class = Legit>, fillcolor="#e5833c"] ;
34 -> 35 ;
36 [label=<sslfinal_state &le; 0.0<br/>gini = 0.32<br/>samples = 4<br/>value = [4, 1]<br/>class = Legit>, fillcolor="#eca06a"] ;
35 -> 36 ;
37 [label=<gini = 0.0<br/>samples = 2<br/>value = [2, 0]<br/>class = Legit>, fillcolor="#e58139"] ;
36 -> 37 ;
38 [label=<links_pointing_to_page &le; -0.5<br/>gini = 0.444<br/>samples = 2<br/>value = [2, 1]<br/>class = Legit>, fillcolor="#f2c09c"] ;
36 -> 38 ;
39 [label=<gini = 0.0<br/>samples = 1<br/>value = [0, 1]<br/>class = Phish>, fillcolor="#399de5"] ;
38 -> 39 ;
40 [label=<gini = 0.0<br/>samples = 1<br/>value = [2, 0]<br/>class = Legit>, fillcolor="#e58139"] ;
38 -> 40 ;
41 [label=<gini = 0.0<br/>samples = 34<br/>value = [58, 0]<br/>class = Legit>, fillcolor="#e58139"] ;
35 -> 41 ;
42 [label=<web_traffic &le; -0.5<br/>gini = 0.48<br/>samples = 45<br/>value = [42, 28]<br/>class = Legit>, fillcolor="#f6d5bd"] ;
34 -> 42 ;
43 [label=<gini = 0.0<br/>samples = 7<br/>value = [0, 8]<br/>class = Phish>, fillcolor="#399de5"] ;
42 -> 43 ;
44 [label=<web_traffic &le; 0.5<br/>gini = 0.437<br/>samples = 38<br/>value = [42, 20]<br/>class = Legit>, fillcolor="#f1bd97"] ;
42 -> 44 ;
45 [label=<redirect &le; 0.5<br/>gini = 0.137<br/>samples = 16<br/>value = [25, 2]<br/>class = Legit>, fillcolor="#e78b49"] ;
44 -> 45 ;
46 [label=<links_pointing_to_page &le; -0.5<br/>gini = 0.159<br/>samples = 14<br/>value = [21, 2]<br/>class = Legit>, fillcolor="#e78d4c"] ;
45 -> 46 ;
47 [label=<gini = 0.0<br/>samples = 4<br/>value = [6, 0]<br/>class = Legit>, fillcolor="#e58139"] ;
46 -> 47 ;
48 [label=<sfh &le; -0.5<br/>gini = 0.208<br/>samples = 10<br/>value = [15, 2]<br/>class = Legit>, fillcolor="#e89253"] ;
46 -> 48 ;
49 [label=<page_rank &le; 0.0<br/>gini = 0.219<br/>samples = 9<br/>value = [14, 2]<br/>class = Legit>, fillcolor="#e99355"] ;
48 -> 49 ;
50 [label=<gini = 0.0<br/>samples = 4<br/>value = [7, 0]<br/>class = Legit>, fillcolor="#e58139"] ;
49 -> 50 ;
51 [label=<request_url &le; 0.0<br/>gini = 0.346<br/>samples = 5<br/>value = [7, 2]<br/>class = Legit>, fillcolor="#eca572"] ;
49 -> 51 ;
52 [label=<gini = 0.0<br/>samples = 1<br/>value = [2, 0]<br/>class = Legit>, fillcolor="#e58139"] ;
51 -> 52 ;
53 [label=<sslfinal_state &le; 0.0<br/>gini = 0.408<br/>samples = 4<br/>value = [5, 2]<br/>class = Legit>, fillcolor="#efb388"] ;
51 -> 53 ;
54 [label=<gini = 0.0<br/>samples = 1<br/>value = [2, 0]<br/>class = Legit>, fillcolor="#e58139"] ;
53 -> 54 ;
55 [label=<having_sub_domain &le; -0.5<br/>gini = 0.48<br/>samples = 3<br/>value = [3, 2]<br/>class = Legit>, fillcolor="#f6d5bd"] ;
53 -> 55 ;
56 [label=<gini = 0.5<br/>samples = 2<br/>value = [2, 2]<br/>class = Legit>, fillcolor="#ffffff"] ;
55 -> 56 ;
57 [label=<gini = 0.0<br/>samples = 1<br/>value = [1, 0]<br/>class = Legit>, fillcolor="#e58139"] ;
55 -> 57 ;
58 [label=<gini = 0.0<br/>samples = 1<br/>value = [1, 0]<br/>class = Legit>, fillcolor="#e58139"] ;
48 -> 58 ;
59 [label=<gini = 0.0<br/>samples = 2<br/>value = [4, 0]<br/>class = Legit>, fillcolor="#e58139"] ;
45 -> 59 ;
60 [label=<url_length &le; 0.0<br/>gini = 0.5<br/>samples = 22<br/>value = [17, 18]<br/>class = Phish>, fillcolor="#f4fafe"] ;
44 -> 60 ;
61 [label=<sfh &le; -0.5<br/>gini = 0.499<br/>samples = 13<br/>value = [9, 10]<br/>class = Phish>, fillcolor="#ebf5fc"] ;
60 -> 61 ;
62 [label=<sslfinal_state &le; 0.0<br/>gini = 0.426<br/>samples = 8<br/>value = [9, 4]<br/>class = Legit>, fillcolor="#f1b991"] ;
61 -> 62 ;
63 [label=<gini = 0.0<br/>samples = 2<br/>value = [4, 0]<br/>class = Legit>, fillcolor="#e58139"] ;
62 -> 63 ;
64 [label=<links_in_tags &le; 0.5<br/>gini = 0.494<br/>samples = 6<br/>value = [5, 4]<br/>class = Legit>, fillcolor="#fae6d7"] ;
62 -> 64 ;
65 [label=<age_of_domain &le; 0.0<br/>gini = 0.375<br/>samples = 3<br/>value = [3, 1]<br/>class = Legit>, fillcolor="#eeab7b"] ;
64 -> 65 ;
66 [label=<gini = 0.0<br/>samples = 1<br/>value = [1, 0]<br/>class = Legit>, fillcolor="#e58139"] ;
65 -> 66 ;
67 [label=<gini = 0.444<br/>samples = 2<br/>value = [2, 1]<br/>class = Legit>, fillcolor="#f2c09c"] ;
65 -> 67 ;
68 [label=<on_mouseover &le; 0.0<br/>gini = 0.48<br/>samples = 3<br/>value = [2, 3]<br/>class = Phish>, fillcolor="#bddef6"] ;
64 -> 68 ;
69 [label=<gini = 0.0<br/>samples = 1<br/>value = [0, 2]<br/>class = Phish>, fillcolor="#399de5"] ;
68 -> 69 ;
70 [label=<page_rank &le; 0.0<br/>gini = 0.444<br/>samples = 2<br/>value = [2, 1]<br/>class = Legit>, fillcolor="#f2c09c"] ;
68 -> 70 ;
71 [label=<gini = 0.0<br/>samples = 1<br/>value = [2, 0]<br/>class = Legit>, fillcolor="#e58139"] ;
70 -> 71 ;
72 [label=<gini = 0.0<br/>samples = 1<br/>value = [0, 1]<br/>class = Phish>, fillcolor="#399de5"] ;
70 -> 72 ;
73 [label=<gini = 0.0<br/>samples = 5<br/>value = [0, 6]<br/>class = Phish>, fillcolor="#399de5"] ;
61 -> 73 ;
74 [label=<links_pointing_to_page &le; -0.5<br/>gini = 0.5<br/>samples = 9<br/>value = [8, 8]<br/>class = Legit>, fillcolor="#ffffff"] ;
60 -> 74 ;
75 [label=<gini = 0.0<br/>samples = 3<br/>value = [7, 0]<br/>class = Legit>, fillcolor="#e58139"] ;
74 -> 75 ;
76 [label=<links_in_tags &le; 0.5<br/>gini = 0.198<br/>samples = 6<br/>value = [1, 8]<br/>class = Phish>, fillcolor="#52a9e8"] ;
74 -> 76 ;
77 [label=<gini = 0.0<br/>samples = 4<br/>value = [0, 7]<br/>class = Phish>, fillcolor="#399de5"] ;
76 -> 77 ;
78 [label=<page_rank &le; 0.0<br/>gini = 0.5<br/>samples = 2<br/>value = [1, 1]<br/>class = Legit>, fillcolor="#ffffff"] ;
76 -> 78 ;
79 [label=<gini = 0.0<br/>samples = 1<br/>value = [0, 1]<br/>class = Phish>, fillcolor="#399de5"] ;
78 -> 79 ;
80 [label=<gini = 0.0<br/>samples = 1<br/>value = [1, 0]<br/>class = Legit>, fillcolor="#e58139"] ;
78 -> 80 ;
81 [label=<links_pointing_to_page &le; -0.5<br/>gini = 0.444<br/>samples = 11<br/>value = [6, 12]<br/>class = Phish>, fillcolor="#9ccef2"] ;
33 -> 81 ;
82 [label=<gini = 0.0<br/>samples = 4<br/>value = [0, 6]<br/>class = Phish>, fillcolor="#399de5"] ;
81 -> 82 ;
83 [label=<double_slash_redirecting &le; 0.0<br/>gini = 0.5<br/>samples = 7<br/>value = [6, 6]<br/>class = Legit>, fillcolor="#ffffff"] ;
81 -> 83 ;
84 [label=<gini = 0.0<br/>samples = 1<br/>value = [1, 0]<br/>class = Legit>, fillcolor="#e58139"] ;
83 -> 84 ;
85 [label=<page_rank &le; 0.0<br/>gini = 0.496<br/>samples = 6<br/>value = [5, 6]<br/>class = Phish>, fillcolor="#deeffb"] ;
83 -> 85 ;
86 [label=<gini = 0.0<br/>samples = 2<br/>value = [0, 5]<br/>class = Phish>, fillcolor="#399de5"] ;
85 -> 86 ;
87 [label=<web_traffic &le; 0.5<br/>gini = 0.278<br/>samples = 4<br/>value = [5, 1]<br/>class = Legit>, fillcolor="#ea9a61"] ;
85 -> 87 ;
88 [label=<gini = 0.0<br/>samples = 1<br/>value = [1, 0]<br/>class = Legit>, fillcolor="#e58139"] ;
87 -> 88 ;
89 [label=<having_sub_domain &le; -0.5<br/>gini = 0.32<br/>samples = 3<br/>value = [4, 1]<br/>class = Legit>, fillcolor="#eca06a"] ;
87 -> 89 ;
90 [label=<gini = 0.0<br/>samples = 1<br/>value = [2, 0]<br/>class = Legit>, fillcolor="#e58139"] ;
89 -> 90 ;
91 [label=<having_at_symbol &le; 0.0<br/>gini = 0.444<br/>samples = 2<br/>value = [2, 1]<br/>class = Legit>, fillcolor="#f2c09c"] ;
89 -> 91 ;
92 [label=<gini = 0.0<br/>samples = 1<br/>value = [2, 0]<br/>class = Legit>, fillcolor="#e58139"] ;
91 -> 92 ;
93 [label=<gini = 0.0<br/>samples = 1<br/>value = [0, 1]<br/>class = Phish>, fillcolor="#399de5"] ;
91 -> 93 ;
94 [label=<url_length &le; -0.5<br/>gini = 0.375<br/>samples = 74<br/>value = [28, 84]<br/>class = Phish>, fillcolor="#7bbeee"] ;
32 -> 94 ;
95 [label=<abnormal_url &le; 0.0<br/>gini = 0.455<br/>samples = 54<br/>value = [27, 50]<br/>class = Phish>, fillcolor="#a4d2f3"] ;
94 -> 95 ;
96 [label=<gini = 0.0<br/>samples = 7<br/>value = [0, 9]<br/>class = Phish>, fillcolor="#399de5"] ;
95 -> 96 ;
97 [label=<sfh &le; -0.5<br/>gini = 0.479<br/>samples = 47<br/>value = [27, 41]<br/>class = Phish>, fillcolor="#bbdef6"] ;
95 -> 97 ;
98 [label=<sslfinal_state &le; 0.5<br/>gini = 0.491<br/>samples = 32<br/>value = [26.0, 20.0]<br/>class = Legit>, fillcolor="#f9e2d1"] ;
97 -> 98 ;
99 [label=<redirect &le; 0.5<br/>gini = 0.105<br/>samples = 13<br/>value = [17, 1]<br/>class = Legit>, fillcolor="#e78845"] ;
98 -> 99 ;
100 [label=<web_traffic &le; 0.5<br/>gini = 0.124<br/>samples = 12<br/>value = [14, 1]<br/>class = Legit>, fillcolor="#e78a47"] ;
99 -> 100 ;
101 [label=<page_rank &le; 0.0<br/>gini = 0.375<br/>samples = 4<br/>value = [3, 1]<br/>class = Legit>, fillcolor="#eeab7b"] ;
100 -> 101 ;
102 [label=<gini = 0.0<br/>samples = 1<br/>value = [0, 1]<br/>class = Phish>, fillcolor="#399de5"] ;
101 -> 102 ;
103 [label=<gini = 0.0<br/>samples = 3<br/>value = [3, 0]<br/>class = Legit>, fillcolor="#e58139"] ;
101 -> 103 ;
104 [label=<gini = 0.0<br/>samples = 8<br/>value = [11, 0]<br/>class = Legit>, fillcolor="#e58139"] ;
100 -> 104 ;
105 [label=<gini = 0.0<br/>samples = 1<br/>value = [3, 0]<br/>class = Legit>, fillcolor="#e58139"] ;
99 -> 105 ;
106 [label=<request_url &le; 0.0<br/>gini = 0.436<br/>samples = 19<br/>value = [9, 19]<br/>class = Phish>, fillcolor="#97cbf1"] ;
98 -> 106 ;
107 [label=<page_rank &le; 0.0<br/>gini = 0.278<br/>samples = 4<br/>value = [5, 1]<br/>class = Legit>, fillcolor="#ea9a61"] ;
106 -> 107 ;
108 [label=<gini = 0.0<br/>samples = 2<br/>value = [4, 0]<br/>class = Legit>, fillcolor="#e58139"] ;
107 -> 108 ;
109 [label=<double_slash_redirecting &le; 0.0<br/>gini = 0.5<br/>samples = 2<br/>value = [1, 1]<br/>class = Legit>, fillcolor="#ffffff"] ;
107 -> 109 ;
110 [label=<gini = 0.0<br/>samples = 1<br/>value = [1, 0]<br/>class = Legit>, fillcolor="#e58139"] ;
109 -> 110 ;
111 [label=<gini = 0.0<br/>samples = 1<br/>value = [0, 1]<br/>class = Phish>, fillcolor="#399de5"] ;
109 -> 111 ;
112 [label=<url_of_anchor &le; 0.5<br/>gini = 0.298<br/>samples = 15<br/>value = [4, 18]<br/>class = Phish>, fillcolor="#65b3eb"] ;
106 -> 112 ;
113 [label=<web_traffic &le; 0.5<br/>gini = 0.36<br/>samples = 11<br/>value = [4, 13]<br/>class = Phish>, fillcolor="#76bbed"] ;
112 -> 113 ;
114 [label=<links_in_tags &le; -0.5<br/>gini = 0.5<br/>samples = 5<br/>value = [4, 4]<br/>class = Legit>, fillcolor="#ffffff"] ;
113 -> 114 ;
115 [label=<gini = 0.0<br/>samples = 1<br/>value = [1, 0]<br/>class = Legit>, fillcolor="#e58139"] ;
114 -> 115 ;
116 [label=<page_rank &le; 0.0<br/>gini = 0.49<br/>samples = 4<br/>value = [3, 4]<br/>class = Phish>, fillcolor="#cee6f8"] ;
114 -> 116 ;
117 [label=<gini = 0.0<br/>samples = 1<br/>value = [0, 1]<br/>class = Phish>, fillcolor="#399de5"] ;
116 -> 117 ;
118 [label=<gini = 0.5<br/>samples = 3<br/>value = [3, 3]<br/>class = Legit>, fillcolor="#ffffff"] ;
116 -> 118 ;
119 [label=<gini = 0.0<br/>samples = 6<br/>value = [0, 9]<br/>class = Phish>, fillcolor="#399de5"] ;
113 -> 119 ;
120 [label=<gini = 0.0<br/>samples = 4<br/>value = [0, 5]<br/>class = Phish>, fillcolor="#399de5"] ;
112 -> 120 ;
121 [label=<links_in_tags &le; 0.5<br/>gini = 0.087<br/>samples = 15<br/>value = [1, 21]<br/>class = Phish>, fillcolor="#42a2e6"] ;
97 -> 121 ;
122 [label=<sslfinal_state &le; 0.5<br/>gini = 0.133<br/>samples = 10<br/>value = [1, 13]<br/>class = Phish>, fillcolor="#48a5e7"] ;
121 -> 122 ;
123 [label=<sslfinal_state &le; -0.5<br/>gini = 0.5<br/>samples = 2<br/>value = [1, 1]<br/>class = Legit>, fillcolor="#ffffff"] ;
122 -> 123 ;
124 [label=<gini = 0.0<br/>samples = 1<br/>value = [0, 1]<br/>class = Phish>, fillcolor="#399de5"] ;
123 -> 124 ;
125 [label=<gini = 0.0<br/>samples = 1<br/>value = [1, 0]<br/>class = Legit>, fillcolor="#e58139"] ;
123 -> 125 ;
126 [label=<gini = 0.0<br/>samples = 8<br/>value = [0, 12]<br/>class = Phish>, fillcolor="#399de5"] ;
122 -> 126 ;
127 [label=<gini = 0.0<br/>samples = 5<br/>value = [0, 8]<br/>class = Phish>, fillcolor="#399de5"] ;
121 -> 127 ;
128 [label=<sslfinal_state &le; 0.0<br/>gini = 0.056<br/>samples = 20<br/>value = [1, 34]<br/>class = Phish>, fillcolor="#3fa0e6"] ;
94 -> 128 ;
129 [label=<sfh &le; -0.5<br/>gini = 0.5<br/>samples = 2<br/>value = [1, 1]<br/>class = Legit>, fillcolor="#ffffff"] ;
128 -> 129 ;
130 [label=<gini = 0.0<br/>samples = 1<br/>value = [1, 0]<br/>class = Legit>, fillcolor="#e58139"] ;
129 -> 130 ;
131 [label=<gini = 0.0<br/>samples = 1<br/>value = [0, 1]<br/>class = Phish>, fillcolor="#399de5"] ;
129 -> 131 ;
132 [label=<gini = 0.0<br/>samples = 18<br/>value = [0, 33]<br/>class = Phish>, fillcolor="#399de5"] ;
128 -> 132 ;
133 [label=<gini = 0.0<br/>samples = 33<br/>value = [0, 51]<br/>class = Phish>, fillcolor="#399de5"] ;
5 -> 133 ;
134 [label=<web_traffic &le; 0.5<br/>gini = 0.451<br/>samples = 828<br/>value = [458, 878]<br/>class = Phish>, fillcolor="#a0d0f3"] ;
2 -> 134 ;
135 [label=<web_traffic &le; -0.5<br/>gini = 0.499<br/>samples = 358<br/>value = [300, 280]<br/>class = Legit>, fillcolor="#fdf7f2"] ;
134 -> 135 ;
136 [label=<age_of_domain &le; 0.0<br/>gini = 0.491<br/>samples = 177<br/>value = [127, 167]<br/>class = Phish>, fillcolor="#d0e8f9"] ;
135 -> 136 ;
137 [label=<having_sub_domain &le; 0.5<br/>gini = 0.449<br/>samples = 84<br/>value = [95, 49]<br/>class = Legit>, fillcolor="#f2c29f"] ;
136 -> 137 ;
138 [label=<request_url &le; 0.0<br/>gini = 0.249<br/>samples = 54<br/>value = [82, 14]<br/>class = Legit>, fillcolor="#e9975b"] ;
137 -> 138 ;
139 [label=<links_in_tags &le; -0.5<br/>gini = 0.398<br/>samples = 29<br/>value = [37.0, 14.0]<br/>class = Legit>, fillcolor="#efb184"] ;
138 -> 139 ;
140 [label=<gini = 0.0<br/>samples = 10<br/>value = [21, 0]<br/>class = Legit>, fillcolor="#e58139"] ;
139 -> 140 ;
141 [label=<having_at_symbol &le; 0.0<br/>gini = 0.498<br/>samples = 19<br/>value = [16, 14]<br/>class = Legit>, fillcolor="#fcefe6"] ;
139 -> 141 ;
142 [label=<gini = 0.0<br/>samples = 3<br/>value = [4, 0]<br/>class = Legit>, fillcolor="#e58139"] ;
141 -> 142 ;
143 [label=<redirect &le; 0.5<br/>gini = 0.497<br/>samples = 16<br/>value = [12, 14]<br/>class = Phish>, fillcolor="#e3f1fb"] ;
141 -> 143 ;
144 [label=<page_rank &le; 0.0<br/>gini = 0.475<br/>samples = 11<br/>value = [11, 7]<br/>class = Legit>, fillcolor="#f6d1b7"] ;
143 -> 144 ;
145 [label=<links_in_tags &le; 0.5<br/>gini = 0.32<br/>samples = 6<br/>value = [8, 2]<br/>class = Legit>, fillcolor="#eca06a"] ;
144 -> 145 ;
146 [label=<gini = 0.0<br/>samples = 2<br/>value = [6, 0]<br/>class = Legit>, fillcolor="#e58139"] ;
145 -> 146 ;
147 [label=<url_of_anchor &le; 0.0<br/>gini = 0.5<br/>samples = 4<br/>value = [2, 2]<br/>class = Legit>, fillcolor="#ffffff"] ;
145 -> 147 ;
148 [label=<gini = 0.0<br/>samples = 2<br/>value = [2, 0]<br/>class = Legit>, fillcolor="#e58139"] ;
147 -> 148 ;
149 [label=<gini = 0.0<br/>samples = 2<br/>value = [0, 2]<br/>class = Phish>, fillcolor="#399de5"] ;
147 -> 149 ;
150 [label=<url_length &le; 0.0<br/>gini = 0.469<br/>samples = 5<br/>value = [3, 5]<br/>class = Phish>, fillcolor="#b0d8f5"] ;
144 -> 150 ;
151 [label=<url_of_anchor &le; -0.5<br/>gini = 0.375<br/>samples = 3<br/>value = [3, 1]<br/>class = Legit>, fillcolor="#eeab7b"] ;
150 -> 151 ;
152 [label=<gini = 0.0<br/>samples = 2<br/>value = [3, 0]<br/>class = Legit>, fillcolor="#e58139"] ;
151 -> 152 ;
153 [label=<gini = 0.0<br/>samples = 1<br/>value = [0, 1]<br/>class = Phish>, fillcolor="#399de5"] ;
151 -> 153 ;
154 [label=<gini = 0.0<br/>samples = 2<br/>value = [0, 4]<br/>class = Phish>, fillcolor="#399de5"] ;
150 -> 154 ;
155 [label=<page_rank &le; 0.0<br/>gini = 0.219<br/>samples = 5<br/>value = [1, 7]<br/>class = Phish>, fillcolor="#55abe9"] ;
143 -> 155 ;
156 [label=<gini = 0.0<br/>samples = 1<br/>value = [1, 0]<br/>class = Legit>, fillcolor="#e58139"] ;
155 -> 156 ;
157 [label=<gini = 0.0<br/>samples = 4<br/>value = [0, 7]<br/>class = Phish>, fillcolor="#399de5"] ;
155 -> 157 ;
158 [label=<gini = 0.0<br/>samples = 25<br/>value = [45, 0]<br/>class = Legit>, fillcolor="#e58139"] ;
138 -> 158 ;
159 [label=<url_of_anchor &le; -0.5<br/>gini = 0.395<br/>samples = 30<br/>value = [13, 35]<br/>class = Phish>, fillcolor="#83c1ef"] ;
137 -> 159 ;
160 [label=<gini = 0.0<br/>samples = 3<br/>value = [7, 0]<br/>class = Legit>, fillcolor="#e58139"] ;
159 -> 160 ;
161 [label=<favicon &le; 0.0<br/>gini = 0.25<br/>samples = 27<br/>value = [6, 35]<br/>class = Phish>, fillcolor="#5baee9"] ;
159 -> 161 ;
162 [label=<gini = 0.0<br/>samples = 2<br/>value = [0, 3]<br/>class = Phish>, fillcolor="#399de5"] ;
161 -> 162 ;
163 [label=<url_length &le; 0.0<br/>gini = 0.266<br/>samples = 25<br/>value = [6, 32]<br/>class = Phish>, fillcolor="#5eafea"] ;
161 -> 163 ;
164 [label=<links_in_tags &le; -0.5<br/>gini = 0.32<br/>samples = 20<br/>value = [6, 24]<br/>class = Phish>, fillcolor="#6ab6ec"] ;
163 -> 164 ;
165 [label=<sfh &le; -0.5<br/>gini = 0.245<br/>samples = 4<br/>value = [6, 1]<br/>class = Legit>, fillcolor="#e9965a"] ;
164 -> 165 ;
166 [label=<gini = 0.0<br/>samples = 1<br/>value = [0, 1]<br/>class = Phish>, fillcolor="#399de5"] ;
165 -> 166 ;
167 [label=<gini = 0.0<br/>samples = 3<br/>value = [6, 0]<br/>class = Legit>, fillcolor="#e58139"] ;
165 -> 167 ;
168 [label=<gini = 0.0<br/>samples = 16<br/>value = [0, 23]<br/>class = Phish>, fillcolor="#399de5"] ;
164 -> 168 ;
169 [label=<gini = 0.0<br/>samples = 5<br/>value = [0, 8]<br/>class = Phish>, fillcolor="#399de5"] ;
163 -> 169 ;
170 [label=<redirect &le; 0.5<br/>gini = 0.336<br/>samples = 93<br/>value = [32, 118]<br/>class = Phish>, fillcolor="#6fb8ec"] ;
136 -> 170 ;
171 [label=<url_length &le; 0.0<br/>gini = 0.272<br/>samples = 76<br/>value = [20, 103]<br/>class = Phish>, fillcolor="#5fb0ea"] ;
170 -> 171 ;
172 [label=<gini = 0.0<br/>samples = 37<br/>value = [0, 61]<br/>class = Phish>, fillcolor="#399de5"] ;
171 -> 172 ;
173 [label=<sfh &le; -0.5<br/>gini = 0.437<br/>samples = 39<br/>value = [20, 42]<br/>class = Phish>, fillcolor="#97ccf1"] ;
171 -> 173 ;
174 [label=<sslfinal_state &le; 0.5<br/>gini = 0.482<br/>samples = 30<br/>value = [19, 28]<br/>class = Phish>, fillcolor="#bfe0f7"] ;
173 -> 174 ;
175 [label=<gini = 0.0<br/>samples = 13<br/>value = [19, 0]<br/>class = Legit>, fillcolor="#e58139"] ;
174 -> 175 ;
176 [label=<gini = 0.0<br/>samples = 17<br/>value = [0, 28]<br/>class = Phish>, fillcolor="#399de5"] ;
174 -> 176 ;
177 [label=<links_in_tags &le; 0.5<br/>gini = 0.124<br/>samples = 9<br/>value = [1, 14]<br/>class = Phish>, fillcolor="#47a4e7"] ;
173 -> 177 ;
178 [label=<on_mouseover &le; 0.0<br/>gini = 0.219<br/>samples = 5<br/>value = [1, 7]<br/>class = Phish>, fillcolor="#55abe9"] ;
177 -> 178 ;
179 [label=<gini = 0.0<br/>samples = 4<br/>value = [0, 7]<br/>class = Phish>, fillcolor="#399de5"] ;
178 -> 179 ;
180 [label=<gini = 0.0<br/>samples = 1<br/>value = [1, 0]<br/>class = Legit>, fillcolor="#e58139"] ;
178 -> 180 ;
181 [label=<gini = 0.0<br/>samples = 4<br/>value = [0, 7]<br/>class = Phish>, fillcolor="#399de5"] ;
177 -> 181 ;
182 [label=<port &le; 0.0<br/>gini = 0.494<br/>samples = 17<br/>value = [12, 15]<br/>class = Phish>, fillcolor="#d7ebfa"] ;
170 -> 182 ;
183 [label=<gini = 0.0<br/>samples = 4<br/>value = [6, 0]<br/>class = Legit>, fillcolor="#e58139"] ;
182 -> 183 ;
184 [label=<https_token &le; 0.0<br/>gini = 0.408<br/>samples = 13<br/>value = [6, 15]<br/>class = Phish>, fillcolor="#88c4ef"] ;
182 -> 184 ;
185 [label=<gini = 0.0<br/>samples = 9<br/>value = [0, 15]<br/>class = Phish>, fillcolor="#399de5"] ;
184 -> 185 ;
186 [label=<gini = 0.0<br/>samples = 4<br/>value = [6, 0]<br/>class = Legit>, fillcolor="#e58139"] ;
184 -> 186 ;
187 [label=<having_sub_domain &le; 0.5<br/>gini = 0.478<br/>samples = 181<br/>value = [173, 113]<br/>class = Legit>, fillcolor="#f6d3ba"] ;
135 -> 187 ;
188 [label=<abnormal_url &le; 0.0<br/>gini = 0.262<br/>samples = 94<br/>value = [131, 24]<br/>class = Legit>, fillcolor="#ea985d"] ;
187 -> 188 ;
189 [label=<url_of_anchor &le; -0.5<br/>gini = 0.48<br/>samples = 30<br/>value = [27, 18]<br/>class = Legit>, fillcolor="#f6d5bd"] ;
188 -> 189 ;
190 [label=<gini = 0.0<br/>samples = 21<br/>value = [26, 0]<br/>class = Legit>, fillcolor="#e58139"] ;
189 -> 190 ;
191 [label=<statistical_report &le; 0.0<br/>gini = 0.1<br/>samples = 9<br/>value = [1, 18]<br/>class = Phish>, fillcolor="#44a2e6"] ;
189 -> 191 ;
192 [label=<gini = 0.0<br/>samples = 5<br/>value = [0, 11]<br/>class = Phish>, fillcolor="#399de5"] ;
191 -> 192 ;
193 [label=<submitting_to_email &le; 0.0<br/>gini = 0.219<br/>samples = 4<br/>value = [1, 7]<br/>class = Phish>, fillcolor="#55abe9"] ;
191 -> 193 ;
194 [label=<gini = 0.0<br/>samples = 2<br/>value = [0, 4]<br/>class = Phish>, fillcolor="#399de5"] ;
193 -> 194 ;
195 [label=<sfh &le; 0.0<br/>gini = 0.375<br/>samples = 2<br/>value = [1, 3]<br/>class = Phish>, fillcolor="#7bbeee"] ;
193 -> 195 ;
196 [label=<gini = 0.0<br/>samples = 1<br/>value = [1, 0]<br/>class = Legit>, fillcolor="#e58139"] ;
195 -> 196 ;
197 [label=<gini = 0.0<br/>samples = 1<br/>value = [0, 3]<br/>class = Phish>, fillcolor="#399de5"] ;
195 -> 197 ;
198 [label=<url_of_anchor &le; -0.5<br/>gini = 0.103<br/>samples = 64<br/>value = [104, 6]<br/>class = Legit>, fillcolor="#e68844"] ;
188 -> 198 ;
199 [label=<gini = 0.0<br/>samples = 45<br/>value = [82, 0]<br/>class = Legit>, fillcolor="#e58139"] ;
198 -> 199 ;
200 [label=<sslfinal_state &le; 0.5<br/>gini = 0.337<br/>samples = 19<br/>value = [22, 6]<br/>class = Legit>, fillcolor="#eca36f"] ;
198 -> 200 ;
201 [label=<gini = 0.0<br/>samples = 7<br/>value = [9, 0]<br/>class = Legit>, fillcolor="#e58139"] ;
200 -> 201 ;
202 [label=<having_at_symbol &le; 0.0<br/>gini = 0.432<br/>samples = 12<br/>value = [13, 6]<br/>class = Legit>, fillcolor="#f1bb94"] ;
200 -> 202 ;
203 [label=<gini = 0.0<br/>samples = 2<br/>value = [2, 0]<br/>class = Legit>, fillcolor="#e58139"] ;
202 -> 203 ;
204 [label=<popupwindow &le; 0.0<br/>gini = 0.457<br/>samples = 10<br/>value = [11, 6]<br/>class = Legit>, fillcolor="#f3c6a5"] ;
202 -> 204 ;
205 [label=<gini = 0.0<br/>samples = 2<br/>value = [0, 2]<br/>class = Phish>, fillcolor="#399de5"] ;
204 -> 205 ;
206 [label=<page_rank &le; 0.0<br/>gini = 0.391<br/>samples = 8<br/>value = [11, 4]<br/>class = Legit>, fillcolor="#eeaf81"] ;
204 -> 206 ;
207 [label=<google_index &le; 0.0<br/>gini = 0.18<br/>samples = 4<br/>value = [9, 1]<br/>class = Legit>, fillcolor="#e88f4f"] ;
206 -> 207 ;
208 [label=<gini = 0.0<br/>samples = 1<br/>value = [1, 0]<br/>class = Legit>, fillcolor="#e58139"] ;
207 -> 208 ;
209 [label=<shortining_service &le; 0.0<br/>gini = 0.198<br/>samples = 3<br/>value = [8, 1]<br/>class = Legit>, fillcolor="#e89152"] ;
207 -> 209 ;
210 [label=<gini = 0.0<br/>samples = 1<br/>value = [3, 0]<br/>class = Legit>, fillcolor="#e58139"] ;
209 -> 210 ;
211 [label=<links_in_tags &le; -0.5<br/>gini = 0.278<br/>samples = 2<br/>value = [5, 1]<br/>class = Legit>, fillcolor="#ea9a61"] ;
209 -> 211 ;
212 [label=<gini = 0.0<br/>samples = 1<br/>value = [0, 1]<br/>class = Phish>, fillcolor="#399de5"] ;
211 -> 212 ;
213 [label=<gini = 0.0<br/>samples = 1<br/>value = [5, 0]<br/>class = Legit>, fillcolor="#e58139"] ;
211 -> 213 ;
214 [label=<links_in_tags &le; -0.5<br/>gini = 0.48<br/>samples = 4<br/>value = [2, 3]<br/>class = Phish>, fillcolor="#bddef6"] ;
206 -> 214 ;
215 [label=<gini = 0.0<br/>samples = 1<br/>value = [0, 1]<br/>class = Phish>, fillcolor="#399de5"] ;
214 -> 215 ;
216 [label=<having_sub_domain &le; -0.5<br/>gini = 0.5<br/>samples = 3<br/>value = [2, 2]<br/>class = Legit>, fillcolor="#ffffff"] ;
214 -> 216 ;
217 [label=<gini = 0.0<br/>samples = 1<br/>value = [0, 1]<br/>class = Phish>, fillcolor="#399de5"] ;
216 -> 217 ;
218 [label=<redirect &le; 0.5<br/>gini = 0.444<br/>samples = 2<br/>value = [2, 1]<br/>class = Legit>, fillcolor="#f2c09c"] ;
216 -> 218 ;
219 [label=<gini = 0.0<br/>samples = 1<br/>value = [2, 0]<br/>class = Legit>, fillcolor="#e58139"] ;
218 -> 219 ;
220 [label=<gini = 0.0<br/>samples = 1<br/>value = [0, 1]<br/>class = Phish>, fillcolor="#399de5"] ;
218 -> 220 ;
221 [label=<dnsrecord &le; 0.0<br/>gini = 0.436<br/>samples = 87<br/>value = [42, 89]<br/>class = Phish>, fillcolor="#96cbf1"] ;
187 -> 221 ;
222 [label=<page_rank &le; 0.0<br/>gini = 0.495<br/>samples = 32<br/>value = [19.0, 23.0]<br/>class = Phish>, fillcolor="#ddeefa"] ;
221 -> 222 ;
223 [label=<url_length &le; 0.0<br/>gini = 0.469<br/>samples = 24<br/>value = [12, 20]<br/>class = Phish>, fillcolor="#b0d8f5"] ;
222 -> 223 ;
224 [label=<favicon &le; 0.0<br/>gini = 0.111<br/>samples = 13<br/>value = [1, 16]<br/>class = Phish>, fillcolor="#45a3e7"] ;
223 -> 224 ;
225 [label=<gini = 0.0<br/>samples = 1<br/>value = [1, 0]<br/>class = Legit>, fillcolor="#e58139"] ;
224 -> 225 ;
226 [label=<gini = 0.0<br/>samples = 12<br/>value = [0, 16]<br/>class = Phish>, fillcolor="#399de5"] ;
224 -> 226 ;
227 [label=<having_at_symbol &le; 0.0<br/>gini = 0.391<br/>samples = 11<br/>value = [11, 4]<br/>class = Legit>, fillcolor="#eeaf81"] ;
223 -> 227 ;
228 [label=<gini = 0.0<br/>samples = 1<br/>value = [1, 0]<br/>class = Legit>, fillcolor="#e58139"] ;
227 -> 228 ;
229 [label=<google_index &le; 0.0<br/>gini = 0.408<br/>samples = 10<br/>value = [10, 4]<br/>class = Legit>, fillcolor="#efb388"] ;
227 -> 229 ;
230 [label=<gini = 0.0<br/>samples = 1<br/>value = [0, 1]<br/>class = Phish>, fillcolor="#399de5"] ;
229 -> 230 ;
231 [label=<statistical_report &le; 0.0<br/>gini = 0.355<br/>samples = 9<br/>value = [10, 3]<br/>class = Legit>, fillcolor="#eda774"] ;
229 -> 231 ;
232 [label=<gini = 0.5<br/>samples = 2<br/>value = [1, 1]<br/>class = Legit>, fillcolor="#ffffff"] ;
231 -> 232 ;
233 [label=<links_in_tags &le; -0.5<br/>gini = 0.298<br/>samples = 7<br/>value = [9, 2]<br/>class = Legit>, fillcolor="#eb9d65"] ;
231 -> 233 ;
234 [label=<sfh &le; 0.0<br/>gini = 0.48<br/>samples = 3<br/>value = [3, 2]<br/>class = Legit>, fillcolor="#f6d5bd"] ;
233 -> 234 ;
235 [label=<gini = 0.0<br/>samples = 1<br/>value = [0, 2]<br/>class = Phish>, fillcolor="#399de5"] ;
234 -> 235 ;
236 [label=<gini = 0.0<br/>samples = 2<br/>value = [3, 0]<br/>class = Legit>, fillcolor="#e58139"] ;
234 -> 236 ;
237 [label=<gini = 0.0<br/>samples = 4<br/>value = [6, 0]<br/>class = Legit>, fillcolor="#e58139"] ;
233 -> 237 ;
238 [label=<popupwindow &le; 0.0<br/>gini = 0.42<br/>samples = 8<br/>value = [7, 3]<br/>class = Legit>, fillcolor="#f0b78e"] ;
222 -> 238 ;
239 [label=<gini = 0.0<br/>samples = 2<br/>value = [2, 0]<br/>class = Legit>, fillcolor="#e58139"] ;
238 -> 239 ;
240 [label=<sslfinal_state &le; 0.5<br/>gini = 0.469<br/>samples = 6<br/>value = [5, 3]<br/>class = Legit>, fillcolor="#f5cdb0"] ;
238 -> 240 ;
241 [label=<gini = 0.0<br/>samples = 4<br/>value = [5, 0]<br/>class = Legit>, fillcolor="#e58139"] ;
240 -> 241 ;
242 [label=<gini = 0.0<br/>samples = 2<br/>value = [0, 3]<br/>class = Phish>, fillcolor="#399de5"] ;
240 -> 242 ;
243 [label=<google_index &le; 0.0<br/>gini = 0.383<br/>samples = 55<br/>value = [23.0, 66.0]<br/>class = Phish>, fillcolor="#7ebfee"] ;
221 -> 243 ;
244 [label=<gini = 0.0<br/>samples = 1<br/>value = [1, 0]<br/>class = Legit>, fillcolor="#e58139"] ;
243 -> 244 ;
245 [label=<url_of_anchor &le; -0.5<br/>gini = 0.375<br/>samples = 54<br/>value = [22, 66]<br/>class = Phish>, fillcolor="#7bbeee"] ;
243 -> 245 ;
246 [label=<gini = 0.0<br/>samples = 10<br/>value = [19, 0]<br/>class = Legit>, fillcolor="#e58139"] ;
245 -> 246 ;
247 [label=<url_of_anchor &le; 0.5<br/>gini = 0.083<br/>samples = 44<br/>value = [3, 66]<br/>class = Phish>, fillcolor="#42a1e6"] ;
245 -> 247 ;
248 [label=<redirect &le; 0.5<br/>gini = 0.107<br/>samples = 34<br/>value = [3, 50]<br/>class = Phish>, fillcolor="#45a3e7"] ;
247 -> 248 ;
249 [label=<rightclick &le; 0.0<br/>gini = 0.083<br/>samples = 31<br/>value = [2, 44]<br/>class = Phish>, fillcolor="#42a1e6"] ;
248 -> 249 ;
250 [label=<gini = 0.0<br/>samples = 4<br/>value = [0, 7]<br/>class = Phish>, fillcolor="#399de5"] ;
249 -> 250 ;
251 [label=<links_in_tags &le; 0.5<br/>gini = 0.097<br/>samples = 27<br/>value = [2, 37]<br/>class = Phish>, fillcolor="#44a2e6"] ;
249 -> 251 ;
252 [label=<age_of_domain &le; 0.0<br/>gini = 0.137<br/>samples = 18<br/>value = [2, 25]<br/>class = Phish>, fillcolor="#49a5e7"] ;
251 -> 252 ;
253 [label=<sslfinal_state &le; 0.5<br/>gini = 0.219<br/>samples = 11<br/>value = [2, 14]<br/>class = Phish>, fillcolor="#55abe9"] ;
252 -> 253 ;
254 [label=<gini = 0.0<br/>samples = 2<br/>value = [2, 0]<br/>class = Legit>, fillcolor="#e58139"] ;
253 -> 254 ;
255 [label=<gini = 0.0<br/>samples = 9<br/>value = [0, 14]<br/>class = Phish>, fillcolor="#399de5"] ;
253 -> 255 ;
256 [label=<gini = 0.0<br/>samples = 7<br/>value = [0, 11]<br/>class = Phish>, fillcolor="#399de5"] ;
252 -> 256 ;
257 [label=<gini = 0.0<br/>samples = 9<br/>value = [0, 12]<br/>class = Phish>, fillcolor="#399de5"] ;
251 -> 257 ;
258 [label=<double_slash_redirecting &le; 0.0<br/>gini = 0.245<br/>samples = 3<br/>value = [1, 6]<br/>class = Phish>, fillcolor="#5aade9"] ;
248 -> 258 ;
259 [label=<gini = 0.0<br/>samples = 2<br/>value = [0, 6]<br/>class = Phish>, fillcolor="#399de5"] ;
258 -> 259 ;
260 [label=<gini = 0.0<br/>samples = 1<br/>value = [1, 0]<br/>class = Legit>, fillcolor="#e58139"] ;
258 -> 260 ;
261 [label=<gini = 0.0<br/>samples = 10<br/>value = [0, 16]<br/>class = Phish>, fillcolor="#399de5"] ;
247 -> 261 ;
262 [label=<url_of_anchor &le; -0.5<br/>gini = 0.331<br/>samples = 470<br/>value = [158, 598]<br/>class = Phish>, fillcolor="#6db7ec"] ;
134 -> 262 ;
263 [label=<double_slash_redirecting &le; 0.0<br/>gini = 0.074<br/>samples = 84<br/>value = [125, 5]<br/>class = Legit>, fillcolor="#e68641"] ;
262 -> 263 ;
264 [label=<gini = 0.0<br/>samples = 44<br/>value = [68, 0]<br/>class = Legit>, fillcolor="#e58139"] ;
263 -> 264 ;
265 [label=<dnsrecord &le; 0.0<br/>gini = 0.148<br/>samples = 40<br/>value = [57, 5]<br/>class = Legit>, fillcolor="#e78c4a"] ;
263 -> 265 ;
266 [label=<gini = 0.0<br/>samples = 1<br/>value = [0, 1]<br/>class = Phish>, fillcolor="#399de5"] ;
265 -> 266 ;
267 [label=<page_rank &le; 0.0<br/>gini = 0.123<br/>samples = 39<br/>value = [57, 4]<br/>class = Legit>, fillcolor="#e78a47"] ;
265 -> 267 ;
268 [label=<port &le; 0.0<br/>gini = 0.188<br/>samples = 25<br/>value = [34, 4]<br/>class = Legit>, fillcolor="#e89050"] ;
267 -> 268 ;
269 [label=<links_in_tags &le; 0.0<br/>gini = 0.245<br/>samples = 4<br/>value = [6, 1]<br/>class = Legit>, fillcolor="#e9965a"] ;
268 -> 269 ;
270 [label=<gini = 0.0<br/>samples = 3<br/>value = [6, 0]<br/>class = Legit>, fillcolor="#e58139"] ;
269 -> 270 ;
271 [label=<gini = 0.0<br/>samples = 1<br/>value = [0, 1]<br/>class = Phish>, fillcolor="#399de5"] ;
269 -> 271 ;
272 [label=<having_sub_domain &le; 0.5<br/>gini = 0.175<br/>samples = 21<br/>value = [28, 3]<br/>class = Legit>, fillcolor="#e88e4e"] ;
268 -> 272 ;
273 [label=<gini = 0.0<br/>samples = 17<br/>value = [26, 0]<br/>class = Legit>, fillcolor="#e58139"] ;
272 -> 273 ;
274 [label=<prefix_suffix &le; 0.0<br/>gini = 0.48<br/>samples = 4<br/>value = [2, 3]<br/>class = Phish>, fillcolor="#bddef6"] ;
272 -> 274 ;
275 [label=<gini = 0.0<br/>samples = 2<br/>value = [2, 0]<br/>class = Legit>, fillcolor="#e58139"] ;
274 -> 275 ;
276 [label=<gini = 0.0<br/>samples = 2<br/>value = [0, 3]<br/>class = Phish>, fillcolor="#399de5"] ;
274 -> 276 ;
277 [label=<gini = 0.0<br/>samples = 14<br/>value = [23, 0]<br/>class = Legit>, fillcolor="#e58139"] ;
267 -> 277 ;
278 [label=<double_slash_redirecting &le; 0.0<br/>gini = 0.1<br/>samples = 386<br/>value = [33, 593]<br/>class = Phish>, fillcolor="#44a2e6"] ;
262 -> 278 ;
279 [label=<iframe &le; 0.0<br/>gini = 0.036<br/>samples = 199<br/>value = [6, 321]<br/>class = Phish>, fillcolor="#3d9fe5"] ;
278 -> 279 ;
280 [label=<popupwindow &le; 0.0<br/>gini = 0.5<br/>samples = 2<br/>value = [1, 1]<br/>class = Legit>, fillcolor="#ffffff"] ;
279 -> 280 ;
281 [label=<gini = 0.0<br/>samples = 1<br/>value = [0, 1]<br/>class = Phish>, fillcolor="#399de5"] ;
280 -> 281 ;
282 [label=<gini = 0.0<br/>samples = 1<br/>value = [1, 0]<br/>class = Legit>, fillcolor="#e58139"] ;
280 -> 282 ;
283 [label=<submitting_to_email &le; 0.0<br/>gini = 0.03<br/>samples = 197<br/>value = [5, 320]<br/>class = Phish>, fillcolor="#3c9fe5"] ;
279 -> 283 ;
284 [label=<port &le; 0.0<br/>gini = 0.49<br/>samples = 5<br/>value = [3, 4]<br/>class = Phish>, fillcolor="#cee6f8"] ;
283 -> 284 ;
285 [label=<gini = 0.0<br/>samples = 3<br/>value = [0, 4]<br/>class = Phish>, fillcolor="#399de5"] ;
284 -> 285 ;
286 [label=<gini = 0.0<br/>samples = 2<br/>value = [3, 0]<br/>class = Legit>, fillcolor="#e58139"] ;
284 -> 286 ;
287 [label=<sslfinal_state &le; 0.0<br/>gini = 0.012<br/>samples = 192<br/>value = [2, 316]<br/>class = Phish>, fillcolor="#3a9ee5"] ;
283 -> 287 ;
288 [label=<page_rank &le; 0.0<br/>gini = 0.1<br/>samples = 22<br/>value = [2, 36]<br/>class = Phish>, fillcolor="#44a2e6"] ;
287 -> 288 ;
289 [label=<gini = 0.0<br/>samples = 14<br/>value = [0, 26]<br/>class = Phish>, fillcolor="#399de5"] ;
288 -> 289 ;
290 [label=<sfh &le; -0.5<br/>gini = 0.278<br/>samples = 8<br/>value = [2, 10]<br/>class = Phish>, fillcolor="#61b1ea"] ;
288 -> 290 ;
291 [label=<having_sub_domain &le; 0.5<br/>gini = 0.375<br/>samples = 6<br/>value = [2, 6]<br/>class = Phish>, fillcolor="#7bbeee"] ;
290 -> 291 ;
292 [label=<gini = 0.0<br/>samples = 1<br/>value = [2, 0]<br/>class = Legit>, fillcolor="#e58139"] ;
291 -> 292 ;
293 [label=<gini = 0.0<br/>samples = 5<br/>value = [0, 6]<br/>class = Phish>, fillcolor="#399de5"] ;
291 -> 293 ;
294 [label=<gini = 0.0<br/>samples = 2<br/>value = [0, 4]<br/>class = Phish>, fillcolor="#399de5"] ;
290 -> 294 ;
295 [label=<gini = 0.0<br/>samples = 170<br/>value = [0, 280]<br/>class = Phish>, fillcolor="#399de5"] ;
287 -> 295 ;
296 [label=<google_index &le; 0.0<br/>gini = 0.164<br/>samples = 187<br/>value = [27, 272]<br/>class = Phish>, fillcolor="#4da7e8"] ;
278 -> 296 ;
297 [label=<sslfinal_state &le; 0.5<br/>gini = 0.375<br/>samples = 10<br/>value = [4, 12]<br/>class = Phish>, fillcolor="#7bbeee"] ;
296 -> 297 ;
298 [label=<gini = 0.0<br/>samples = 3<br/>value = [4, 0]<br/>class = Legit>, fillcolor="#e58139"] ;
297 -> 298 ;
299 [label=<gini = 0.0<br/>samples = 7<br/>value = [0, 12]<br/>class = Phish>, fillcolor="#399de5"] ;
297 -> 299 ;
300 [label=<port &le; 0.0<br/>gini = 0.149<br/>samples = 177<br/>value = [23, 260]<br/>class = Phish>, fillcolor="#4ba6e7"] ;
296 -> 300 ;
301 [label=<having_sub_domain &le; 0.5<br/>gini = 0.063<br/>samples = 65<br/>value = [3, 89]<br/>class = Phish>, fillcolor="#40a0e6"] ;
300 -> 301 ;
302 [label=<popupwindow &le; 0.0<br/>gini = 0.255<br/>samples = 17<br/>value = [3, 17]<br/>class = Phish>, fillcolor="#5caeea"] ;
301 -> 302 ;
303 [label=<sslfinal_state &le; 0.0<br/>gini = 0.105<br/>samples = 15<br/>value = [1, 17]<br/>class = Phish>, fillcolor="#45a3e7"] ;
302 -> 303 ;
304 [label=<rightclick &le; 0.0<br/>gini = 0.5<br/>samples = 2<br/>value = [1, 1]<br/>class = Legit>, fillcolor="#ffffff"] ;
303 -> 304 ;
305 [label=<gini = 0.0<br/>samples = 1<br/>value = [1, 0]<br/>class = Legit>, fillcolor="#e58139"] ;
304 -> 305 ;
306 [label=<gini = 0.0<br/>samples = 1<br/>value = [0, 1]<br/>class = Phish>, fillcolor="#399de5"] ;
304 -> 306 ;
307 [label=<gini = 0.0<br/>samples = 13<br/>value = [0, 16]<br/>class = Phish>, fillcolor="#399de5"] ;
303 -> 307 ;
308 [label=<gini = 0.0<br/>samples = 2<br/>value = [2, 0]<br/>class = Legit>, fillcolor="#e58139"] ;
302 -> 308 ;
309 [label=<gini = 0.0<br/>samples = 48<br/>value = [0, 72]<br/>class = Phish>, fillcolor="#399de5"] ;
301 -> 309 ;
310 [label=<prefix_suffix &le; 0.0<br/>gini = 0.187<br/>samples = 112<br/>value = [20, 171]<br/>class = Phish>, fillcolor="#50a8e8"] ;
300 -> 310 ;
311 [label=<sfh &le; -0.5<br/>gini = 0.239<br/>samples = 84<br/>value = [20, 124]<br/>class = Phish>, fillcolor="#59ade9"] ;
310 -> 311 ;
312 [label=<shortining_service &le; 0.0<br/>gini = 0.335<br/>samples = 41<br/>value = [13, 48]<br/>class = Phish>, fillcolor="#6fb8ec"] ;
311 -> 312 ;
313 [label=<on_mouseover &le; 0.0<br/>gini = 0.5<br/>samples = 2<br/>value = [1, 1]<br/>class = Legit>, fillcolor="#ffffff"] ;
312 -> 313 ;
314 [label=<gini = 0.0<br/>samples = 1<br/>value = [0, 1]<br/>class = Phish>, fillcolor="#399de5"] ;
313 -> 314 ;
315 [label=<gini = 0.0<br/>samples = 1<br/>value = [1, 0]<br/>class = Legit>, fillcolor="#e58139"] ;
313 -> 315 ;
316 [label=<links_in_tags &le; -0.5<br/>gini = 0.324<br/>samples = 39<br/>value = [12, 47]<br/>class = Phish>, fillcolor="#6cb6ec"] ;
312 -> 316 ;
317 [label=<url_length &le; 0.0<br/>gini = 0.469<br/>samples = 13<br/>value = [10, 6]<br/>class = Legit>, fillcolor="#f5cdb0"] ;
316 -> 317 ;
318 [label=<sslfinal_state &le; 0.5<br/>gini = 0.397<br/>samples = 9<br/>value = [8, 3]<br/>class = Legit>, fillcolor="#efb083"] ;
317 -> 318 ;
319 [label=<gini = 0.0<br/>samples = 6<br/>value = [7, 0]<br/>class = Legit>, fillcolor="#e58139"] ;
318 -> 319 ;
320 [label=<having_sub_domain &le; 0.5<br/>gini = 0.375<br/>samples = 3<br/>value = [1, 3]<br/>class = Phish>, fillcolor="#7bbeee"] ;
318 -> 320 ;
321 [label=<gini = 0.0<br/>samples = 1<br/>value = [1, 0]<br/>class = Legit>, fillcolor="#e58139"] ;
320 -> 321 ;
322 [label=<gini = 0.0<br/>samples = 2<br/>value = [0, 3]<br/>class = Phish>, fillcolor="#399de5"] ;
320 -> 322 ;
323 [label=<having_sub_domain &le; -0.5<br/>gini = 0.48<br/>samples = 4<br/>value = [2, 3]<br/>class = Phish>, fillcolor="#bddef6"] ;
317 -> 323 ;
324 [label=<gini = 0.0<br/>samples = 2<br/>value = [0, 2]<br/>class = Phish>, fillcolor="#399de5"] ;
323 -> 324 ;
325 [label=<having_at_symbol &le; 0.0<br/>gini = 0.444<br/>samples = 2<br/>value = [2, 1]<br/>class = Legit>, fillcolor="#f2c09c"] ;
323 -> 325 ;
326 [label=<gini = 0.0<br/>samples = 1<br/>value = [0, 1]<br/>class = Phish>, fillcolor="#399de5"] ;
325 -> 326 ;
327 [label=<gini = 0.0<br/>samples = 1<br/>value = [2, 0]<br/>class = Legit>, fillcolor="#e58139"] ;
325 -> 327 ;
328 [label=<page_rank &le; 0.0<br/>gini = 0.089<br/>samples = 26<br/>value = [2, 41]<br/>class = Phish>, fillcolor="#43a2e6"] ;
316 -> 328 ;
329 [label=<request_url &le; 0.0<br/>gini = 0.1<br/>samples = 22<br/>value = [2, 36]<br/>class = Phish>, fillcolor="#44a2e6"] ;
328 -> 329 ;
330 [label=<gini = 0.0<br/>samples = 1<br/>value = [0, 2]<br/>class = Phish>, fillcolor="#399de5"] ;
329 -> 330 ;
331 [label=<popupwindow &le; 0.0<br/>gini = 0.105<br/>samples = 21<br/>value = [2, 34]<br/>class = Phish>, fillcolor="#45a3e7"] ;
329 -> 331 ;
332 [label=<gini = 0.0<br/>samples = 6<br/>value = [0, 8]<br/>class = Phish>, fillcolor="#399de5"] ;
331 -> 332 ;
333 [label=<sslfinal_state &le; 0.0<br/>gini = 0.133<br/>samples = 15<br/>value = [2, 26]<br/>class = Phish>, fillcolor="#48a5e7"] ;
331 -> 333 ;
334 [label=<links_in_tags &le; 0.5<br/>gini = 0.48<br/>samples = 3<br/>value = [2, 3]<br/>class = Phish>, fillcolor="#bddef6"] ;
333 -> 334 ;
335 [label=<redirect &le; 0.5<br/>gini = 0.444<br/>samples = 2<br/>value = [2, 1]<br/>class = Legit>, fillcolor="#f2c09c"] ;
334 -> 335 ;
336 [label=<gini = 0.0<br/>samples = 1<br/>value = [2, 0]<br/>class = Legit>, fillcolor="#e58139"] ;
335 -> 336 ;
337 [label=<gini = 0.0<br/>samples = 1<br/>value = [0, 1]<br/>class = Phish>, fillcolor="#399de5"] ;
335 -> 337 ;
338 [label=<gini = 0.0<br/>samples = 1<br/>value = [0, 2]<br/>class = Phish>, fillcolor="#399de5"] ;
334 -> 338 ;
339 [label=<gini = 0.0<br/>samples = 12<br/>value = [0, 23]<br/>class = Phish>, fillcolor="#399de5"] ;
333 -> 339 ;
340 [label=<gini = 0.0<br/>samples = 4<br/>value = [0, 5]<br/>class = Phish>, fillcolor="#399de5"] ;
328 -> 340 ;
341 [label=<page_rank &le; 0.0<br/>gini = 0.154<br/>samples = 43<br/>value = [7.0, 76.0]<br/>class = Phish>, fillcolor="#4ba6e7"] ;
311 -> 341 ;
342 [label=<having_sub_domain &le; -0.5<br/>gini = 0.237<br/>samples = 27<br/>value = [7.0, 44.0]<br/>class = Phish>, fillcolor="#58ade9"] ;
341 -> 342 ;
343 [label=<age_of_domain &le; 0.0<br/>gini = 0.391<br/>samples = 10<br/>value = [4, 11]<br/>class = Phish>, fillcolor="#81c1ee"] ;
342 -> 343 ;
344 [label=<request_url &le; 0.0<br/>gini = 0.165<br/>samples = 7<br/>value = [1, 10]<br/>class = Phish>, fillcolor="#4da7e8"] ;
343 -> 344 ;
345 [label=<gini = 0.0<br/>samples = 2<br/>value = [0, 4]<br/>class = Phish>, fillcolor="#399de5"] ;
344 -> 345 ;
346 [label=<sslfinal_state &le; 0.0<br/>gini = 0.245<br/>samples = 5<br/>value = [1, 6]<br/>class = Phish>, fillcolor="#5aade9"] ;
344 -> 346 ;
347 [label=<gini = 0.0<br/>samples = 1<br/>value = [1, 0]<br/>class = Legit>, fillcolor="#e58139"] ;
346 -> 347 ;
348 [label=<gini = 0.0<br/>samples = 4<br/>value = [0, 6]<br/>class = Phish>, fillcolor="#399de5"] ;
346 -> 348 ;
349 [label=<sfh &le; 0.5<br/>gini = 0.375<br/>samples = 3<br/>value = [3, 1]<br/>class = Legit>, fillcolor="#eeab7b"] ;
343 -> 349 ;
350 [label=<gini = 0.0<br/>samples = 1<br/>value = [1, 0]<br/>class = Legit>, fillcolor="#e58139"] ;
349 -> 350 ;
351 [label=<links_in_tags &le; 0.0<br/>gini = 0.444<br/>samples = 2<br/>value = [2, 1]<br/>class = Legit>, fillcolor="#f2c09c"] ;
349 -> 351 ;
352 [label=<gini = 0.0<br/>samples = 1<br/>value = [2, 0]<br/>class = Legit>, fillcolor="#e58139"] ;
351 -> 352 ;
353 [label=<gini = 0.0<br/>samples = 1<br/>value = [0, 1]<br/>class = Phish>, fillcolor="#399de5"] ;
351 -> 353 ;
354 [label=<request_url &le; 0.0<br/>gini = 0.153<br/>samples = 17<br/>value = [3, 33]<br/>class = Phish>, fillcolor="#4ba6e7"] ;
342 -> 354 ;
355 [label=<gini = 0.0<br/>samples = 3<br/>value = [0, 6]<br/>class = Phish>, fillcolor="#399de5"] ;
354 -> 355 ;
356 [label=<url_length &le; 0.0<br/>gini = 0.18<br/>samples = 14<br/>value = [3, 27]<br/>class = Phish>, fillcolor="#4fa8e8"] ;
354 -> 356 ;
357 [label=<url_of_anchor &le; 0.5<br/>gini = 0.185<br/>samples = 13<br/>value = [3, 26]<br/>class = Phish>, fillcolor="#50a8e8"] ;
356 -> 357 ;
358 [label=<on_mouseover &le; 0.0<br/>gini = 0.236<br/>samples = 10<br/>value = [3, 19]<br/>class = Phish>, fillcolor="#58ace9"] ;
357 -> 358 ;
359 [label=<gini = 0.0<br/>samples = 2<br/>value = [0, 2]<br/>class = Phish>, fillcolor="#399de5"] ;
358 -> 359 ;
360 [label=<sfh &le; 0.5<br/>gini = 0.255<br/>samples = 8<br/>value = [3, 17]<br/>class = Phish>, fillcolor="#5caeea"] ;
358 -> 360 ;
361 [label=<gini = 0.0<br/>samples = 4<br/>value = [0, 12]<br/>class = Phish>, fillcolor="#399de5"] ;
360 -> 361 ;
362 [label=<links_in_tags &le; -0.5<br/>gini = 0.469<br/>samples = 4<br/>value = [3, 5]<br/>class = Phish>, fillcolor="#b0d8f5"] ;
360 -> 362 ;
363 [label=<gini = 0.0<br/>samples = 1<br/>value = [0, 1]<br/>class = Phish>, fillcolor="#399de5"] ;
362 -> 363 ;
364 [label=<sslfinal_state &le; 0.0<br/>gini = 0.49<br/>samples = 3<br/>value = [3, 4]<br/>class = Phish>, fillcolor="#cee6f8"] ;
362 -> 364 ;
365 [label=<gini = 0.0<br/>samples = 1<br/>value = [3, 0]<br/>class = Legit>, fillcolor="#e58139"] ;
364 -> 365 ;
366 [label=<gini = 0.0<br/>samples = 2<br/>value = [0, 4]<br/>class = Phish>, fillcolor="#399de5"] ;
364 -> 366 ;
367 [label=<gini = 0.0<br/>samples = 3<br/>value = [0, 7]<br/>class = Phish>, fillcolor="#399de5"] ;
357 -> 367 ;
368 [label=<gini = 0.0<br/>samples = 1<br/>value = [0, 1]<br/>class = Phish>, fillcolor="#399de5"] ;
356 -> 368 ;
369 [label=<gini = 0.0<br/>samples = 16<br/>value = [0, 32]<br/>class = Phish>, fillcolor="#399de5"] ;
341 -> 369 ;
370 [label=<gini = 0.0<br/>samples = 28<br/>value = [0, 47]<br/>class = Phish>, fillcolor="#399de5"] ;
310 -> 370 ;
371 [label=<url_of_anchor &le; -0.5<br/>gini = 0.435<br/>samples = 2447<br/>value = [1238, 2629]<br/>class = Phish>, fillcolor="#96cbf1"] ;
1 -> 371 ;
372 [label=<having_sub_domain &le; -0.5<br/>gini = 0.035<br/>samples = 488<br/>value = [765, 14]<br/>class = Legit>, fillcolor="#e5833d"] ;
371 -> 372 ;
373 [label=<https_token &le; 0.0<br/>gini = 0.064<br/>samples = 199<br/>value = [319, 11]<br/>class = Legit>, fillcolor="#e68540"] ;
372 -> 373 ;
374 [label=<gini = 0.0<br/>samples = 21<br/>value = [39, 0]<br/>class = Legit>, fillcolor="#e58139"] ;
373 -> 374 ;
375 [label=<prefix_suffix &le; 0.0<br/>gini = 0.073<br/>samples = 178<br/>value = [280, 11]<br/>class = Legit>, fillcolor="#e68641"] ;
373 -> 375 ;
376 [label=<web_traffic &le; 0.5<br/>gini = 0.028<br/>samples = 173<br/>value = [280, 4]<br/>class = Legit>, fillcolor="#e5833c"] ;
375 -> 376 ;
377 [label=<gini = 0.0<br/>samples = 136<br/>value = [221, 0]<br/>class = Legit>, fillcolor="#e58139"] ;
376 -> 377 ;
378 [label=<links_pointing_to_page &le; -0.5<br/>gini = 0.119<br/>samples = 37<br/>value = [59, 4]<br/>class = Legit>, fillcolor="#e78a46"] ;
376 -> 378 ;
379 [label=<redirect &le; 0.5<br/>gini = 0.346<br/>samples = 5<br/>value = [7, 2]<br/>class = Legit>, fillcolor="#eca572"] ;
378 -> 379 ;
380 [label=<sslfinal_state &le; 0.0<br/>gini = 0.444<br/>samples = 3<br/>value = [4, 2]<br/>class = Legit>, fillcolor="#f2c09c"] ;
379 -> 380 ;
381 [label=<gini = 0.0<br/>samples = 2<br/>value = [4, 0]<br/>class = Legit>, fillcolor="#e58139"] ;
380 -> 381 ;
382 [label=<gini = 0.0<br/>samples = 1<br/>value = [0, 2]<br/>class = Phish>, fillcolor="#399de5"] ;
380 -> 382 ;
383 [label=<gini = 0.0<br/>samples = 2<br/>value = [3, 0]<br/>class = Legit>, fillcolor="#e58139"] ;
379 -> 383 ;
384 [label=<on_mouseover &le; 0.0<br/>gini = 0.071<br/>samples = 32<br/>value = [52, 2]<br/>class = Legit>, fillcolor="#e68641"] ;
378 -> 384 ;
385 [label=<links_in_tags &le; 0.5<br/>gini = 0.408<br/>samples = 5<br/>value = [5, 2]<br/>class = Legit>, fillcolor="#efb388"] ;
384 -> 385 ;
386 [label=<gini = 0.0<br/>samples = 4<br/>value = [5, 0]<br/>class = Legit>, fillcolor="#e58139"] ;
385 -> 386 ;
387 [label=<gini = 0.0<br/>samples = 1<br/>value = [0, 2]<br/>class = Phish>, fillcolor="#399de5"] ;
385 -> 387 ;
388 [label=<gini = 0.0<br/>samples = 27<br/>value = [47, 0]<br/>class = Legit>, fillcolor="#e58139"] ;
384 -> 388 ;
389 [label=<gini = 0.0<br/>samples = 5<br/>value = [0, 7]<br/>class = Phish>, fillcolor="#399de5"] ;
375 -> 389 ;
390 [label=<links_pointing_to_page &le; -0.5<br/>gini = 0.013<br/>samples = 289<br/>value = [446, 3]<br/>class = Legit>, fillcolor="#e5823a"] ;
372 -> 390 ;
391 [label=<having_sub_domain &le; 0.5<br/>gini = 0.397<br/>samples = 10<br/>value = [8, 3]<br/>class = Legit>, fillcolor="#efb083"] ;
390 -> 391 ;
392 [label=<gini = 0.0<br/>samples = 6<br/>value = [6, 0]<br/>class = Legit>, fillcolor="#e58139"] ;
391 -> 392 ;
393 [label=<web_traffic &le; -0.5<br/>gini = 0.48<br/>samples = 4<br/>value = [2, 3]<br/>class = Phish>, fillcolor="#bddef6"] ;
391 -> 393 ;
394 [label=<gini = 0.0<br/>samples = 1<br/>value = [0, 2]<br/>class = Phish>, fillcolor="#399de5"] ;
393 -> 394 ;
395 [label=<age_of_domain &le; 0.0<br/>gini = 0.444<br/>samples = 3<br/>value = [2, 1]<br/>class = Legit>, fillcolor="#f2c09c"] ;
393 -> 395 ;
396 [label=<gini = 0.0<br/>samples = 1<br/>value = [0, 1]<br/>class = Phish>, fillcolor="#399de5"] ;
395 -> 396 ;
397 [label=<gini = 0.0<br/>samples = 2<br/>value = [2, 0]<br/>class = Legit>, fillcolor="#e58139"] ;
395 -> 397 ;
398 [label=<gini = 0.0<br/>samples = 279<br/>value = [438, 0]<br/>class = Legit>, fillcolor="#e58139"] ;
390 -> 398 ;
399 [label=<prefix_suffix &le; 0.0<br/>gini = 0.259<br/>samples = 1959<br/>value = [473.0, 2615.0]<br/>class = Phish>, fillcolor="#5dafea"] ;
371 -> 399 ;
400 [label=<request_url &le; 0.0<br/>gini = 0.304<br/>samples = 1589<br/>value = [473, 2061]<br/>class = Phish>, fillcolor="#66b3eb"] ;
399 -> 400 ;
401 [label=<having_sub_domain &le; 0.5<br/>gini = 0.456<br/>samples = 265<br/>value = [139, 256]<br/>class = Phish>, fillcolor="#a5d2f3"] ;
400 -> 401 ;
402 [label=<sslfinal_state &le; 0.5<br/>gini = 0.499<br/>samples = 163<br/>value = [129, 116]<br/>class = Legit>, fillcolor="#fcf2eb"] ;
401 -> 402 ;
403 [label=<page_rank &le; 0.0<br/>gini = 0.189<br/>samples = 69<br/>value = [93, 11]<br/>class = Legit>, fillcolor="#e89050"] ;
402 -> 403 ;
404 [label=<links_pointing_to_page &le; 0.5<br/>gini = 0.257<br/>samples = 47<br/>value = [56, 10]<br/>class = Legit>, fillcolor="#ea985c"] ;
403 -> 404 ;
405 [label=<url_of_anchor &le; 0.5<br/>gini = 0.085<br/>samples = 33<br/>value = [43, 2]<br/>class = Legit>, fillcolor="#e68742"] ;
404 -> 405 ;
406 [label=<gini = 0.0<br/>samples = 28<br/>value = [39, 0]<br/>class = Legit>, fillcolor="#e58139"] ;
405 -> 406 ;
407 [label=<links_in_tags &le; -0.5<br/>gini = 0.444<br/>samples = 5<br/>value = [4, 2]<br/>class = Legit>, fillcolor="#f2c09c"] ;
405 -> 407 ;
408 [label=<gini = 0.0<br/>samples = 3<br/>value = [4, 0]<br/>class = Legit>, fillcolor="#e58139"] ;
407 -> 408 ;
409 [label=<gini = 0.0<br/>samples = 2<br/>value = [0, 2]<br/>class = Phish>, fillcolor="#399de5"] ;
407 -> 409 ;
410 [label=<having_sub_domain &le; -0.5<br/>gini = 0.472<br/>samples = 14<br/>value = [13, 8]<br/>class = Legit>, fillcolor="#f5cfb3"] ;
404 -> 410 ;
411 [label=<dnsrecord &le; 0.0<br/>gini = 0.165<br/>samples = 7<br/>value = [10, 1]<br/>class = Legit>, fillcolor="#e88e4d"] ;
410 -> 411 ;
412 [label=<gini = 0.0<br/>samples = 6<br/>value = [10, 0]<br/>class = Legit>, fillcolor="#e58139"] ;
411 -> 412 ;
413 [label=<gini = 0.0<br/>samples = 1<br/>value = [0, 1]<br/>class = Phish>, fillcolor="#399de5"] ;
411 -> 413 ;
414 [label=<sslfinal_state &le; -0.5<br/>gini = 0.42<br/>samples = 7<br/>value = [3, 7]<br/>class = Phish>, fillcolor="#8ec7f0"] ;
410 -> 414 ;
415 [label=<gini = 0.0<br/>samples = 5<br/>value = [0, 7]<br/>class = Phish>, fillcolor="#399de5"] ;
414 -> 415 ;
416 [label=<gini = 0.0<br/>samples = 2<br/>value = [3, 0]<br/>class = Legit>, fillcolor="#e58139"] ;
414 -> 416 ;
417 [label=<double_slash_redirecting &le; 0.0<br/>gini = 0.051<br/>samples = 22<br/>value = [37, 1]<br/>class = Legit>, fillcolor="#e6843e"] ;
403 -> 417 ;
418 [label=<gini = 0.0<br/>samples = 1<br/>value = [1, 0]<br/>class = Legit>, fillcolor="#e58139"] ;
417 -> 418 ;
419 [label=<redirect &le; 0.5<br/>gini = 0.053<br/>samples = 21<br/>value = [36, 1]<br/>class = Legit>, fillcolor="#e6843e"] ;
417 -> 419 ;
420 [label=<popupwindow &le; 0.0<br/>gini = 0.077<br/>samples = 14<br/>value = [24, 1]<br/>class = Legit>, fillcolor="#e68641"] ;
419 -> 420 ;
421 [label=<gini = 0.0<br/>samples = 1<br/>value = [1, 0]<br/>class = Legit>, fillcolor="#e58139"] ;
420 -> 421 ;
422 [label=<age_of_domain &le; 0.0<br/>gini = 0.08<br/>samples = 13<br/>value = [23, 1]<br/>class = Legit>, fillcolor="#e68642"] ;
420 -> 422 ;
423 [label=<links_in_tags &le; -0.5<br/>gini = 0.105<br/>samples = 10<br/>value = [17, 1]<br/>class = Legit>, fillcolor="#e78845"] ;
422 -> 423 ;
424 [label=<gini = 0.0<br/>samples = 7<br/>value = [14, 0]<br/>class = Legit>, fillcolor="#e58139"] ;
423 -> 424 ;
425 [label=<having_sub_domain &le; -0.5<br/>gini = 0.375<br/>samples = 3<br/>value = [3, 1]<br/>class = Legit>, fillcolor="#eeab7b"] ;
423 -> 425 ;
426 [label=<gini = 0.0<br/>samples = 2<br/>value = [3, 0]<br/>class = Legit>, fillcolor="#e58139"] ;
425 -> 426 ;
427 [label=<gini = 0.0<br/>samples = 1<br/>value = [0, 1]<br/>class = Phish>, fillcolor="#399de5"] ;
425 -> 427 ;
428 [label=<gini = 0.0<br/>samples = 3<br/>value = [6, 0]<br/>class = Legit>, fillcolor="#e58139"] ;
422 -> 428 ;
429 [label=<gini = 0.0<br/>samples = 7<br/>value = [12, 0]<br/>class = Legit>, fillcolor="#e58139"] ;
419 -> 429 ;
430 [label=<page_rank &le; 0.0<br/>gini = 0.38<br/>samples = 94<br/>value = [36, 105]<br/>class = Phish>, fillcolor="#7dbfee"] ;
402 -> 430 ;
431 [label=<url_of_anchor &le; 0.5<br/>gini = 0.466<br/>samples = 63<br/>value = [34, 58]<br/>class = Phish>, fillcolor="#add6f4"] ;
430 -> 431 ;
432 [label=<port &le; 0.0<br/>gini = 0.498<br/>samples = 51<br/>value = [34, 38]<br/>class = Phish>, fillcolor="#eaf5fc"] ;
431 -> 432 ;
433 [label=<dnsrecord &le; 0.0<br/>gini = 0.408<br/>samples = 9<br/>value = [10, 4]<br/>class = Legit>, fillcolor="#efb388"] ;
432 -> 433 ;
434 [label=<statistical_report &le; 0.0<br/>gini = 0.397<br/>samples = 7<br/>value = [8, 3]<br/>class = Legit>, fillcolor="#efb083"] ;
433 -> 434 ;
435 [label=<gini = 0.0<br/>samples = 5<br/>value = [8, 0]<br/>class = Legit>, fillcolor="#e58139"] ;
434 -> 435 ;
436 [label=<gini = 0.0<br/>samples = 2<br/>value = [0, 3]<br/>class = Phish>, fillcolor="#399de5"] ;
434 -> 436 ;
437 [label=<having_at_symbol &le; 0.0<br/>gini = 0.444<br/>samples = 2<br/>value = [2, 1]<br/>class = Legit>, fillcolor="#f2c09c"] ;
433 -> 437 ;
438 [label=<gini = 0.0<br/>samples = 1<br/>value = [0, 1]<br/>class = Phish>, fillcolor="#399de5"] ;
437 -> 438 ;
439 [label=<gini = 0.0<br/>samples = 1<br/>value = [2, 0]<br/>class = Legit>, fillcolor="#e58139"] ;
437 -> 439 ;
440 [label=<double_slash_redirecting &le; 0.0<br/>gini = 0.485<br/>samples = 42<br/>value = [24, 34]<br/>class = Phish>, fillcolor="#c5e2f7"] ;
432 -> 440 ;
441 [label=<gini = 0.0<br/>samples = 6<br/>value = [9, 0]<br/>class = Legit>, fillcolor="#e58139"] ;
440 -> 441 ;
442 [label=<google_index &le; 0.0<br/>gini = 0.425<br/>samples = 36<br/>value = [15, 34]<br/>class = Phish>, fillcolor="#90c8f0"] ;
440 -> 442 ;
443 [label=<dnsrecord &le; 0.0<br/>gini = 0.219<br/>samples = 7<br/>value = [7, 1]<br/>class = Legit>, fillcolor="#e99355"] ;
442 -> 443 ;
444 [label=<gini = 0.0<br/>samples = 3<br/>value = [3, 0]<br/>class = Legit>, fillcolor="#e58139"] ;
443 -> 444 ;
445 [label=<web_traffic &le; 0.5<br/>gini = 0.32<br/>samples = 4<br/>value = [4, 1]<br/>class = Legit>, fillcolor="#eca06a"] ;
443 -> 445 ;
446 [label=<age_of_domain &le; 0.0<br/>gini = 0.444<br/>samples = 3<br/>value = [2, 1]<br/>class = Legit>, fillcolor="#f2c09c"] ;
445 -> 446 ;
447 [label=<having_sub_domain &le; -0.5<br/>gini = 0.5<br/>samples = 2<br/>value = [1, 1]<br/>class = Legit>, fillcolor="#ffffff"] ;
446 -> 447 ;
448 [label=<gini = 0.0<br/>samples = 1<br/>value = [1, 0]<br/>class = Legit>, fillcolor="#e58139"] ;
447 -> 448 ;
449 [label=<gini = 0.0<br/>samples = 1<br/>value = [0, 1]<br/>class = Phish>, fillcolor="#399de5"] ;
447 -> 449 ;
450 [label=<gini = 0.0<br/>samples = 1<br/>value = [1, 0]<br/>class = Legit>, fillcolor="#e58139"] ;
446 -> 450 ;
451 [label=<gini = 0.0<br/>samples = 1<br/>value = [2, 0]<br/>class = Legit>, fillcolor="#e58139"] ;
445 -> 451 ;
452 [label=<web_traffic &le; 0.5<br/>gini = 0.314<br/>samples = 29<br/>value = [8, 33]<br/>class = Phish>, fillcolor="#69b5eb"] ;
442 -> 452 ;
453 [label=<links_in_tags &le; 0.5<br/>gini = 0.475<br/>samples = 15<br/>value = [7, 11]<br/>class = Phish>, fillcolor="#b7dbf6"] ;
452 -> 453 ;
454 [label=<having_sub_domain &le; -0.5<br/>gini = 0.457<br/>samples = 14<br/>value = [6, 11]<br/>class = Phish>, fillcolor="#a5d2f3"] ;
453 -> 454 ;
455 [label=<dnsrecord &le; 0.0<br/>gini = 0.497<br/>samples = 10<br/>value = [6, 7]<br/>class = Phish>, fillcolor="#e3f1fb"] ;
454 -> 455 ;
456 [label=<gini = 0.0<br/>samples = 2<br/>value = [4, 0]<br/>class = Legit>, fillcolor="#e58139"] ;
455 -> 456 ;
457 [label=<links_in_tags &le; -0.5<br/>gini = 0.346<br/>samples = 8<br/>value = [2, 7]<br/>class = Phish>, fillcolor="#72b9ec"] ;
455 -> 457 ;
458 [label=<web_traffic &le; -0.5<br/>gini = 0.444<br/>samples = 3<br/>value = [1, 2]<br/>class = Phish>, fillcolor="#9ccef2"] ;
457 -> 458 ;
459 [label=<gini = 0.0<br/>samples = 2<br/>value = [0, 2]<br/>class = Phish>, fillcolor="#399de5"] ;
458 -> 459 ;
460 [label=<gini = 0.0<br/>samples = 1<br/>value = [1, 0]<br/>class = Legit>, fillcolor="#e58139"] ;
458 -> 460 ;
461 [label=<shortining_service &le; 0.0<br/>gini = 0.278<br/>samples = 5<br/>value = [1, 5]<br/>class = Phish>, fillcolor="#61b1ea"] ;
457 -> 461 ;
462 [label=<gini = 0.0<br/>samples = 1<br/>value = [0, 1]<br/>class = Phish>, fillcolor="#399de5"] ;
461 -> 462 ;
463 [label=<gini = 0.32<br/>samples = 4<br/>value = [1, 4]<br/>class = Phish>, fillcolor="#6ab6ec"] ;
461 -> 463 ;
464 [label=<gini = 0.0<br/>samples = 4<br/>value = [0, 4]<br/>class = Phish>, fillcolor="#399de5"] ;
454 -> 464 ;
465 [label=<gini = 0.0<br/>samples = 1<br/>value = [1, 0]<br/>class = Legit>, fillcolor="#e58139"] ;
453 -> 465 ;
466 [label=<age_of_domain &le; 0.0<br/>gini = 0.083<br/>samples = 14<br/>value = [1, 22]<br/>class = Phish>, fillcolor="#42a1e6"] ;
452 -> 466 ;
467 [label=<having_at_symbol &le; 0.0<br/>gini = 0.165<br/>samples = 7<br/>value = [1, 10]<br/>class = Phish>, fillcolor="#4da7e8"] ;
466 -> 467 ;
468 [label=<gini = 0.0<br/>samples = 2<br/>value = [0, 3]<br/>class = Phish>, fillcolor="#399de5"] ;
467 -> 468 ;
469 [label=<links_in_tags &le; -0.5<br/>gini = 0.219<br/>samples = 5<br/>value = [1, 7]<br/>class = Phish>, fillcolor="#55abe9"] ;
467 -> 469 ;
470 [label=<gini = 0.0<br/>samples = 1<br/>value = [0, 1]<br/>class = Phish>, fillcolor="#399de5"] ;
469 -> 470 ;
471 [label=<dnsrecord &le; 0.0<br/>gini = 0.245<br/>samples = 4<br/>value = [1, 6]<br/>class = Phish>, fillcolor="#5aade9"] ;
469 -> 471 ;
472 [label=<gini = 0.0<br/>samples = 1<br/>value = [1, 0]<br/>class = Legit>, fillcolor="#e58139"] ;
471 -> 472 ;
473 [label=<gini = 0.0<br/>samples = 3<br/>value = [0, 6]<br/>class = Phish>, fillcolor="#399de5"] ;
471 -> 473 ;
474 [label=<gini = 0.0<br/>samples = 7<br/>value = [0, 12]<br/>class = Phish>, fillcolor="#399de5"] ;
466 -> 474 ;
475 [label=<gini = 0.0<br/>samples = 12<br/>value = [0, 20]<br/>class = Phish>, fillcolor="#399de5"] ;
431 -> 475 ;
476 [label=<age_of_domain &le; 0.0<br/>gini = 0.078<br/>samples = 31<br/>value = [2.0, 47.0]<br/>class = Phish>, fillcolor="#41a1e6"] ;
430 -> 476 ;
477 [label=<url_of_anchor &le; 0.5<br/>gini = 0.133<br/>samples = 20<br/>value = [2, 26]<br/>class = Phish>, fillcolor="#48a5e7"] ;
476 -> 477 ;
478 [label=<dnsrecord &le; 0.0<br/>gini = 0.142<br/>samples = 18<br/>value = [2, 24]<br/>class = Phish>, fillcolor="#49a5e7"] ;
477 -> 478 ;
479 [label=<gini = 0.0<br/>samples = 5<br/>value = [0, 7]<br/>class = Phish>, fillcolor="#399de5"] ;
478 -> 479 ;
480 [label=<web_traffic &le; 0.5<br/>gini = 0.188<br/>samples = 13<br/>value = [2, 17]<br/>class = Phish>, fillcolor="#50a9e8"] ;
478 -> 480 ;
481 [label=<gini = 0.0<br/>samples = 2<br/>value = [2, 0]<br/>class = Legit>, fillcolor="#e58139"] ;
480 -> 481 ;
482 [label=<gini = 0.0<br/>samples = 11<br/>value = [0, 17]<br/>class = Phish>, fillcolor="#399de5"] ;
480 -> 482 ;
483 [label=<gini = 0.0<br/>samples = 2<br/>value = [0, 2]<br/>class = Phish>, fillcolor="#399de5"] ;
477 -> 483 ;
484 [label=<gini = 0.0<br/>samples = 11<br/>value = [0, 21]<br/>class = Phish>, fillcolor="#399de5"] ;
476 -> 484 ;
485 [label=<url_length &le; 0.0<br/>gini = 0.124<br/>samples = 102<br/>value = [10, 140]<br/>class = Phish>, fillcolor="#47a4e7"] ;
401 -> 485 ;
486 [label=<google_index &le; 0.0<br/>gini = 0.106<br/>samples = 95<br/>value = [8, 135]<br/>class = Phish>, fillcolor="#45a3e7"] ;
485 -> 486 ;
487 [label=<shortining_service &le; 0.0<br/>gini = 0.42<br/>samples = 9<br/>value = [6, 14]<br/>class = Phish>, fillcolor="#8ec7f0"] ;
486 -> 487 ;
488 [label=<gini = 0.0<br/>samples = 1<br/>value = [0, 3]<br/>class = Phish>, fillcolor="#399de5"] ;
487 -> 488 ;
489 [label=<url_of_anchor &le; 0.5<br/>gini = 0.457<br/>samples = 8<br/>value = [6, 11]<br/>class = Phish>, fillcolor="#a5d2f3"] ;
487 -> 489 ;
490 [label=<sslfinal_state &le; 0.0<br/>gini = 0.444<br/>samples = 4<br/>value = [6, 3]<br/>class = Legit>, fillcolor="#f2c09c"] ;
489 -> 490 ;
491 [label=<gini = 0.0<br/>samples = 2<br/>value = [6, 0]<br/>class = Legit>, fillcolor="#e58139"] ;
490 -> 491 ;
492 [label=<gini = 0.0<br/>samples = 2<br/>value = [0, 3]<br/>class = Phish>, fillcolor="#399de5"] ;
490 -> 492 ;
493 [label=<gini = 0.0<br/>samples = 4<br/>value = [0, 8]<br/>class = Phish>, fillcolor="#399de5"] ;
489 -> 493 ;
494 [label=<sslfinal_state &le; 0.0<br/>gini = 0.032<br/>samples = 86<br/>value = [2, 121]<br/>class = Phish>, fillcolor="#3c9fe5"] ;
486 -> 494 ;
495 [label=<links_pointing_to_page &le; 0.5<br/>gini = 0.444<br/>samples = 2<br/>value = [2, 1]<br/>class = Legit>, fillcolor="#f2c09c"] ;
494 -> 495 ;
496 [label=<gini = 0.0<br/>samples = 1<br/>value = [2, 0]<br/>class = Legit>, fillcolor="#e58139"] ;
495 -> 496 ;
497 [label=<gini = 0.0<br/>samples = 1<br/>value = [0, 1]<br/>class = Phish>, fillcolor="#399de5"] ;
495 -> 497 ;
498 [label=<gini = 0.0<br/>samples = 84<br/>value = [0, 120]<br/>class = Phish>, fillcolor="#399de5"] ;
494 -> 498 ;
499 [label=<links_pointing_to_page &le; -0.5<br/>gini = 0.408<br/>samples = 7<br/>value = [2, 5]<br/>class = Phish>, fillcolor="#88c4ef"] ;
485 -> 499 ;
500 [label=<gini = 0.0<br/>samples = 2<br/>value = [2, 0]<br/>class = Legit>, fillcolor="#e58139"] ;
499 -> 500 ;
501 [label=<gini = 0.0<br/>samples = 5<br/>value = [0, 5]<br/>class = Phish>, fillcolor="#399de5"] ;
499 -> 501 ;
502 [label=<links_in_tags &le; -0.5<br/>gini = 0.264<br/>samples = 1324<br/>value = [334, 1805]<br/>class = Phish>, fillcolor="#5eafea"] ;
400 -> 502 ;
503 [label=<popupwindow &le; 0.0<br/>gini = 0.412<br/>samples = 332<br/>value = [151, 370]<br/>class = Phish>, fillcolor="#8ac5f0"] ;
502 -> 503 ;
504 [label=<web_traffic &le; 0.5<br/>gini = 0.109<br/>samples = 79<br/>value = [7, 114]<br/>class = Phish>, fillcolor="#45a3e7"] ;
503 -> 504 ;
505 [label=<links_pointing_to_page &le; -0.5<br/>gini = 0.465<br/>samples = 13<br/>value = [7, 12]<br/>class = Phish>, fillcolor="#acd6f4"] ;
504 -> 505 ;
506 [label=<gini = 0.0<br/>samples = 2<br/>value = [5, 0]<br/>class = Legit>, fillcolor="#e58139"] ;
505 -> 506 ;
507 [label=<submitting_to_email &le; 0.0<br/>gini = 0.245<br/>samples = 11<br/>value = [2, 12]<br/>class = Phish>, fillcolor="#5aade9"] ;
505 -> 507 ;
508 [label=<statistical_report &le; 0.0<br/>gini = 0.32<br/>samples = 9<br/>value = [2, 8]<br/>class = Phish>, fillcolor="#6ab6ec"] ;
507 -> 508 ;
509 [label=<on_mouseover &le; 0.0<br/>gini = 0.444<br/>samples = 5<br/>value = [2, 4]<br/>class = Phish>, fillcolor="#9ccef2"] ;
508 -> 509 ;
510 [label=<gini = 0.0<br/>samples = 3<br/>value = [0, 4]<br/>class = Phish>, fillcolor="#399de5"] ;
509 -> 510 ;
511 [label=<gini = 0.0<br/>samples = 2<br/>value = [2, 0]<br/>class = Legit>, fillcolor="#e58139"] ;
509 -> 511 ;
512 [label=<gini = 0.0<br/>samples = 4<br/>value = [0, 4]<br/>class = Phish>, fillcolor="#399de5"] ;
508 -> 512 ;
513 [label=<gini = 0.0<br/>samples = 2<br/>value = [0, 4]<br/>class = Phish>, fillcolor="#399de5"] ;
507 -> 513 ;
514 [label=<gini = 0.0<br/>samples = 66<br/>value = [0, 102]<br/>class = Phish>, fillcolor="#399de5"] ;
504 -> 514 ;
515 [label=<url_of_anchor &le; 0.5<br/>gini = 0.461<br/>samples = 253<br/>value = [144, 256]<br/>class = Phish>, fillcolor="#a8d4f4"] ;
503 -> 515 ;
516 [label=<url_length &le; 0.5<br/>gini = 0.486<br/>samples = 206<br/>value = [135, 190]<br/>class = Phish>, fillcolor="#c6e3f7"] ;
515 -> 516 ;
517 [label=<age_of_domain &le; 0.0<br/>gini = 0.495<br/>samples = 188<br/>value = [133.0, 161.0]<br/>class = Phish>, fillcolor="#ddeefa"] ;
516 -> 517 ;
518 [label=<sfh &le; 0.5<br/>gini = 0.497<br/>samples = 79<br/>value = [70, 60]<br/>class = Legit>, fillcolor="#fbede3"] ;
517 -> 518 ;
519 [label=<dnsrecord &le; 0.0<br/>gini = 0.494<br/>samples = 73<br/>value = [69, 55]<br/>class = Legit>, fillcolor="#fae5d7"] ;
518 -> 519 ;
520 [label=<sfh &le; -0.5<br/>gini = 0.375<br/>samples = 14<br/>value = [18, 6]<br/>class = Legit>, fillcolor="#eeab7b"] ;
519 -> 520 ;
521 [label=<links_pointing_to_page &le; -0.5<br/>gini = 0.34<br/>samples = 13<br/>value = [18, 5]<br/>class = Legit>, fillcolor="#eca470"] ;
520 -> 521 ;
522 [label=<gini = 0.0<br/>samples = 2<br/>value = [0, 3]<br/>class = Phish>, fillcolor="#399de5"] ;
521 -> 522 ;
523 [label=<https_token &le; 0.0<br/>gini = 0.18<br/>samples = 11<br/>value = [18, 2]<br/>class = Legit>, fillcolor="#e88f4f"] ;
521 -> 523 ;
524 [label=<gini = 0.0<br/>samples = 2<br/>value = [5, 0]<br/>class = Legit>, fillcolor="#e58139"] ;
523 -> 524 ;
525 [label=<sslfinal_state &le; 0.0<br/>gini = 0.231<br/>samples = 9<br/>value = [13, 2]<br/>class = Legit>, fillcolor="#e99457"] ;
523 -> 525 ;
526 [label=<gini = 0.0<br/>samples = 7<br/>value = [13, 0]<br/>class = Legit>, fillcolor="#e58139"] ;
525 -> 526 ;
527 [label=<gini = 0.0<br/>samples = 2<br/>value = [0, 2]<br/>class = Phish>, fillcolor="#399de5"] ;
525 -> 527 ;
528 [label=<gini = 0.0<br/>samples = 1<br/>value = [0, 1]<br/>class = Phish>, fillcolor="#399de5"] ;
520 -> 528 ;
529 [label=<submitting_to_email &le; 0.0<br/>gini = 0.5<br/>samples = 59<br/>value = [51, 49]<br/>class = Legit>, fillcolor="#fefaf7"] ;
519 -> 529 ;
530 [label=<gini = 0.0<br/>samples = 3<br/>value = [3, 0]<br/>class = Legit>, fillcolor="#e58139"] ;
529 -> 530 ;
531 [label=<statistical_report &le; 0.0<br/>gini = 0.5<br/>samples = 56<br/>value = [48, 49]<br/>class = Phish>, fillcolor="#fbfdfe"] ;
529 -> 531 ;
532 [label=<gini = 0.0<br/>samples = 2<br/>value = [2, 0]<br/>class = Legit>, fillcolor="#e58139"] ;
531 -> 532 ;
533 [label=<https_token &le; 0.0<br/>gini = 0.5<br/>samples = 54<br/>value = [46.0, 49.0]<br/>class = Phish>, fillcolor="#f3f9fd"] ;
531 -> 533 ;
534 [label=<gini = 0.0<br/>samples = 1<br/>value = [3, 0]<br/>class = Legit>, fillcolor="#e58139"] ;
533 -> 534 ;
535 [label=<shortining_service &le; 0.0<br/>gini = 0.498<br/>samples = 53<br/>value = [43, 49]<br/>class = Phish>, fillcolor="#e7f3fc"] ;
533 -> 535 ;
536 [label=<gini = 0.0<br/>samples = 1<br/>value = [0, 2]<br/>class = Phish>, fillcolor="#399de5"] ;
535 -> 536 ;
537 [label=<having_sub_domain &le; 0.5<br/>gini = 0.499<br/>samples = 52<br/>value = [43, 47]<br/>class = Phish>, fillcolor="#eef7fd"] ;
535 -> 537 ;
538 [label=<links_pointing_to_page &le; 0.5<br/>gini = 0.457<br/>samples = 29<br/>value = [33, 18]<br/>class = Legit>, fillcolor="#f3c6a5"] ;
537 -> 538 ;
539 [label=<web_traffic &le; -0.5<br/>gini = 0.44<br/>samples = 28<br/>value = [33.0, 16.0]<br/>class = Legit>, fillcolor="#f2be99"] ;
538 -> 539 ;
540 [label=<gini = 0.0<br/>samples = 1<br/>value = [2, 0]<br/>class = Legit>, fillcolor="#e58139"] ;
539 -> 540 ;
541 [label=<redirect &le; 0.5<br/>gini = 0.449<br/>samples = 27<br/>value = [31.0, 16.0]<br/>class = Legit>, fillcolor="#f2c29f"] ;
539 -> 541 ;
542 [label=<page_rank &le; 0.0<br/>gini = 0.463<br/>samples = 25<br/>value = [28, 16]<br/>class = Legit>, fillcolor="#f4c9aa"] ;
541 -> 542 ;
543 [label=<sfh &le; -0.5<br/>gini = 0.444<br/>samples = 16<br/>value = [18, 9]<br/>class = Legit>, fillcolor="#f2c09c"] ;
542 -> 543 ;
544 [label=<web_traffic &le; 0.5<br/>gini = 0.461<br/>samples = 15<br/>value = [16, 9]<br/>class = Legit>, fillcolor="#f4c8a8"] ;
543 -> 544 ;
545 [label=<sslfinal_state &le; 0.0<br/>gini = 0.498<br/>samples = 9<br/>value = [8, 7]<br/>class = Legit>, fillcolor="#fcefe6"] ;
544 -> 545 ;
546 [label=<gini = 0.0<br/>samples = 2<br/>value = [0, 3]<br/>class = Phish>, fillcolor="#399de5"] ;
545 -> 546 ;
547 [label=<having_sub_domain &le; -0.5<br/>gini = 0.444<br/>samples = 7<br/>value = [8, 4]<br/>class = Legit>, fillcolor="#f2c09c"] ;
545 -> 547 ;
548 [label=<google_index &le; 0.0<br/>gini = 0.48<br/>samples = 6<br/>value = [6, 4]<br/>class = Legit>, fillcolor="#f6d5bd"] ;
547 -> 548 ;
549 [label=<gini = 0.0<br/>samples = 2<br/>value = [3, 0]<br/>class = Legit>, fillcolor="#e58139"] ;
548 -> 549 ;
550 [label=<gini = 0.49<br/>samples = 4<br/>value = [3, 4]<br/>class = Phish>, fillcolor="#cee6f8"] ;
548 -> 550 ;
551 [label=<gini = 0.0<br/>samples = 1<br/>value = [2, 0]<br/>class = Legit>, fillcolor="#e58139"] ;
547 -> 551 ;
552 [label=<google_index &le; 0.0<br/>gini = 0.32<br/>samples = 6<br/>value = [8, 2]<br/>class = Legit>, fillcolor="#eca06a"] ;
544 -> 552 ;
553 [label=<gini = 0.0<br/>samples = 1<br/>value = [2, 0]<br/>class = Legit>, fillcolor="#e58139"] ;
552 -> 553 ;
554 [label=<having_sub_domain &le; -0.5<br/>gini = 0.375<br/>samples = 5<br/>value = [6, 2]<br/>class = Legit>, fillcolor="#eeab7b"] ;
552 -> 554 ;
555 [label=<gini = 0.408<br/>samples = 4<br/>value = [5, 2]<br/>class = Legit>, fillcolor="#efb388"] ;
554 -> 555 ;
556 [label=<gini = 0.0<br/>samples = 1<br/>value = [1, 0]<br/>class = Legit>, fillcolor="#e58139"] ;
554 -> 556 ;
557 [label=<gini = 0.0<br/>samples = 1<br/>value = [2, 0]<br/>class = Legit>, fillcolor="#e58139"] ;
543 -> 557 ;
558 [label=<having_sub_domain &le; -0.5<br/>gini = 0.484<br/>samples = 9<br/>value = [10, 7]<br/>class = Legit>, fillcolor="#f7d9c4"] ;
542 -> 558 ;
559 [label=<gini = 0.0<br/>samples = 1<br/>value = [4, 0]<br/>class = Legit>, fillcolor="#e58139"] ;
558 -> 559 ;
560 [label=<web_traffic &le; 0.5<br/>gini = 0.497<br/>samples = 8<br/>value = [6, 7]<br/>class = Phish>, fillcolor="#e3f1fb"] ;
558 -> 560 ;
561 [label=<gini = 0.0<br/>samples = 2<br/>value = [3, 0]<br/>class = Legit>, fillcolor="#e58139"] ;
560 -> 561 ;
562 [label=<sslfinal_state &le; 0.0<br/>gini = 0.42<br/>samples = 6<br/>value = [3, 7]<br/>class = Phish>, fillcolor="#8ec7f0"] ;
560 -> 562 ;
563 [label=<gini = 0.0<br/>samples = 2<br/>value = [3, 0]<br/>class = Legit>, fillcolor="#e58139"] ;
562 -> 563 ;
564 [label=<gini = 0.0<br/>samples = 4<br/>value = [0, 7]<br/>class = Phish>, fillcolor="#399de5"] ;
562 -> 564 ;
565 [label=<gini = 0.0<br/>samples = 2<br/>value = [3, 0]<br/>class = Legit>, fillcolor="#e58139"] ;
541 -> 565 ;
566 [label=<gini = 0.0<br/>samples = 1<br/>value = [0, 2]<br/>class = Phish>, fillcolor="#399de5"] ;
538 -> 566 ;
567 [label=<page_rank &le; 0.0<br/>gini = 0.381<br/>samples = 23<br/>value = [10, 29]<br/>class = Phish>, fillcolor="#7dbfee"] ;
537 -> 567 ;
568 [label=<sslfinal_state &le; 0.0<br/>gini = 0.393<br/>samples = 15<br/>value = [7, 19]<br/>class = Phish>, fillcolor="#82c1ef"] ;
567 -> 568 ;
569 [label=<gini = 0.0<br/>samples = 2<br/>value = [4, 0]<br/>class = Legit>, fillcolor="#e58139"] ;
568 -> 569 ;
570 [label=<sfh &le; -0.5<br/>gini = 0.236<br/>samples = 13<br/>value = [3, 19]<br/>class = Phish>, fillcolor="#58ace9"] ;
568 -> 570 ;
571 [label=<redirect &le; 0.5<br/>gini = 0.245<br/>samples = 12<br/>value = [3, 18]<br/>class = Phish>, fillcolor="#5aade9"] ;
570 -> 571 ;
572 [label=<having_at_symbol &le; 0.0<br/>gini = 0.278<br/>samples = 10<br/>value = [3, 15]<br/>class = Phish>, fillcolor="#61b1ea"] ;
571 -> 572 ;
573 [label=<gini = 0.0<br/>samples = 1<br/>value = [0, 1]<br/>class = Phish>, fillcolor="#399de5"] ;
572 -> 573 ;
574 [label=<web_traffic &le; 0.5<br/>gini = 0.291<br/>samples = 9<br/>value = [3, 14]<br/>class = Phish>, fillcolor="#63b2eb"] ;
572 -> 574 ;
575 [label=<web_traffic &le; -0.5<br/>gini = 0.231<br/>samples = 7<br/>value = [2, 13]<br/>class = Phish>, fillcolor="#57ace9"] ;
574 -> 575 ;
576 [label=<gini = 0.0<br/>samples = 1<br/>value = [0, 2]<br/>class = Phish>, fillcolor="#399de5"] ;
575 -> 576 ;
577 [label=<google_index &le; 0.0<br/>gini = 0.26<br/>samples = 6<br/>value = [2, 11]<br/>class = Phish>, fillcolor="#5dafea"] ;
575 -> 577 ;
578 [label=<gini = 0.0<br/>samples = 1<br/>value = [1, 0]<br/>class = Legit>, fillcolor="#e58139"] ;
577 -> 578 ;
579 [label=<gini = 0.153<br/>samples = 5<br/>value = [1, 11]<br/>class = Phish>, fillcolor="#4ba6e7"] ;
577 -> 579 ;
580 [label=<gini = 0.5<br/>samples = 2<br/>value = [1, 1]<br/>class = Legit>, fillcolor="#ffffff"] ;
574 -> 580 ;
581 [label=<gini = 0.0<br/>samples = 2<br/>value = [0, 3]<br/>class = Phish>, fillcolor="#399de5"] ;
571 -> 581 ;
582 [label=<gini = 0.0<br/>samples = 1<br/>value = [0, 1]<br/>class = Phish>, fillcolor="#399de5"] ;
570 -> 582 ;
583 [label=<sslfinal_state &le; 0.5<br/>gini = 0.355<br/>samples = 8<br/>value = [3, 10]<br/>class = Phish>, fillcolor="#74baed"] ;
567 -> 583 ;
584 [label=<gini = 0.0<br/>samples = 1<br/>value = [0, 4]<br/>class = Phish>, fillcolor="#399de5"] ;
583 -> 584 ;
585 [label=<redirect &le; 0.5<br/>gini = 0.444<br/>samples = 7<br/>value = [3, 6]<br/>class = Phish>, fillcolor="#9ccef2"] ;
583 -> 585 ;
586 [label=<web_traffic &le; 0.5<br/>gini = 0.375<br/>samples = 6<br/>value = [2, 6]<br/>class = Phish>, fillcolor="#7bbeee"] ;
585 -> 586 ;
587 [label=<gini = 0.444<br/>samples = 4<br/>value = [2, 4]<br/>class = Phish>, fillcolor="#9ccef2"] ;
586 -> 587 ;
588 [label=<gini = 0.0<br/>samples = 2<br/>value = [0, 2]<br/>class = Phish>, fillcolor="#399de5"] ;
586 -> 588 ;
589 [label=<gini = 0.0<br/>samples = 1<br/>value = [1, 0]<br/>class = Legit>, fillcolor="#e58139"] ;
585 -> 589 ;
590 [label=<page_rank &le; 0.0<br/>gini = 0.278<br/>samples = 6<br/>value = [1, 5]<br/>class = Phish>, fillcolor="#61b1ea"] ;
518 -> 590 ;
591 [label=<gini = 0.0<br/>samples = 1<br/>value = [0, 1]<br/>class = Phish>, fillcolor="#399de5"] ;
590 -> 591 ;
592 [label=<sslfinal_state &le; 0.0<br/>gini = 0.32<br/>samples = 5<br/>value = [1, 4]<br/>class = Phish>, fillcolor="#6ab6ec"] ;
590 -> 592 ;
593 [label=<gini = 0.0<br/>samples = 1<br/>value = [1, 0]<br/>class = Legit>, fillcolor="#e58139"] ;
592 -> 593 ;
594 [label=<gini = 0.0<br/>samples = 4<br/>value = [0, 4]<br/>class = Phish>, fillcolor="#399de5"] ;
592 -> 594 ;
595 [label=<page_rank &le; 0.0<br/>gini = 0.473<br/>samples = 109<br/>value = [63, 101]<br/>class = Phish>, fillcolor="#b5daf5"] ;
517 -> 595 ;
596 [label=<abnormal_url &le; 0.0<br/>gini = 0.486<br/>samples = 98<br/>value = [63, 88]<br/>class = Phish>, fillcolor="#c7e3f8"] ;
595 -> 596 ;
597 [label=<gini = 0.0<br/>samples = 3<br/>value = [4, 0]<br/>class = Legit>, fillcolor="#e58139"] ;
596 -> 597 ;
598 [label=<statistical_report &le; 0.0<br/>gini = 0.481<br/>samples = 95<br/>value = [59, 88]<br/>class = Phish>, fillcolor="#bedff6"] ;
596 -> 598 ;
599 [label=<gini = 0.0<br/>samples = 4<br/>value = [0, 5]<br/>class = Phish>, fillcolor="#399de5"] ;
598 -> 599 ;
600 [label=<web_traffic &le; 0.5<br/>gini = 0.486<br/>samples = 91<br/>value = [59, 83]<br/>class = Phish>, fillcolor="#c6e3f7"] ;
598 -> 600 ;
601 [label=<google_index &le; 0.0<br/>gini = 0.5<br/>samples = 42<br/>value = [33, 31]<br/>class = Legit>, fillcolor="#fdf7f3"] ;
600 -> 601 ;
602 [label=<sslfinal_state &le; 0.5<br/>gini = 0.484<br/>samples = 12<br/>value = [7, 10]<br/>class = Phish>, fillcolor="#c4e2f7"] ;
601 -> 602 ;
603 [label=<gini = 0.0<br/>samples = 6<br/>value = [6, 0]<br/>class = Legit>, fillcolor="#e58139"] ;
602 -> 603 ;
604 [label=<dnsrecord &le; 0.0<br/>gini = 0.165<br/>samples = 6<br/>value = [1, 10]<br/>class = Phish>, fillcolor="#4da7e8"] ;
602 -> 604 ;
605 [label=<gini = 0.0<br/>samples = 1<br/>value = [1, 0]<br/>class = Legit>, fillcolor="#e58139"] ;
604 -> 605 ;
606 [label=<gini = 0.0<br/>samples = 5<br/>value = [0, 10]<br/>class = Phish>, fillcolor="#399de5"] ;
604 -> 606 ;
607 [label=<having_sub_domain &le; 0.5<br/>gini = 0.494<br/>samples = 30<br/>value = [26, 21]<br/>class = Legit>, fillcolor="#fae7d9"] ;
601 -> 607 ;
608 [label=<sfh &le; 0.0<br/>gini = 0.434<br/>samples = 13<br/>value = [15.0, 7.0]<br/>class = Legit>, fillcolor="#f1bc95"] ;
607 -> 608 ;
609 [label=<sslfinal_state &le; 0.0<br/>gini = 0.444<br/>samples = 12<br/>value = [14, 7]<br/>class = Legit>, fillcolor="#f2c09c"] ;
608 -> 609 ;
610 [label=<gini = 0.0<br/>samples = 3<br/>value = [5, 0]<br/>class = Legit>, fillcolor="#e58139"] ;
609 -> 610 ;
611 [label=<dnsrecord &le; 0.0<br/>gini = 0.492<br/>samples = 9<br/>value = [9, 7]<br/>class = Legit>, fillcolor="#f9e3d3"] ;
609 -> 611 ;
612 [label=<gini = 0.0<br/>samples = 1<br/>value = [0, 1]<br/>class = Phish>, fillcolor="#399de5"] ;
611 -> 612 ;
613 [label=<links_pointing_to_page &le; 0.5<br/>gini = 0.48<br/>samples = 8<br/>value = [9, 6]<br/>class = Legit>, fillcolor="#f6d5bd"] ;
611 -> 613 ;
614 [label=<having_sub_domain &le; -0.5<br/>gini = 0.426<br/>samples = 7<br/>value = [9, 4]<br/>class = Legit>, fillcolor="#f1b991"] ;
613 -> 614 ;
615 [label=<gini = 0.0<br/>samples = 2<br/>value = [4, 0]<br/>class = Legit>, fillcolor="#e58139"] ;
614 -> 615 ;
616 [label=<web_traffic &le; -0.5<br/>gini = 0.494<br/>samples = 5<br/>value = [5, 4]<br/>class = Legit>, fillcolor="#fae6d7"] ;
614 -> 616 ;
617 [label=<gini = 0.0<br/>samples = 1<br/>value = [0, 4]<br/>class = Phish>, fillcolor="#399de5"] ;
616 -> 617 ;
618 [label=<gini = 0.0<br/>samples = 4<br/>value = [5, 0]<br/>class = Legit>, fillcolor="#e58139"] ;
616 -> 618 ;
619 [label=<gini = 0.0<br/>samples = 1<br/>value = [0, 2]<br/>class = Phish>, fillcolor="#399de5"] ;
613 -> 619 ;
620 [label=<gini = 0.0<br/>samples = 1<br/>value = [1, 0]<br/>class = Legit>, fillcolor="#e58139"] ;
608 -> 620 ;
621 [label=<sslfinal_state &le; 0.0<br/>gini = 0.493<br/>samples = 17<br/>value = [11.0, 14.0]<br/>class = Phish>, fillcolor="#d5eaf9"] ;
607 -> 621 ;
622 [label=<gini = 0.0<br/>samples = 2<br/>value = [2, 0]<br/>class = Legit>, fillcolor="#e58139"] ;
621 -> 622 ;
623 [label=<web_traffic &le; -0.5<br/>gini = 0.476<br/>samples = 15<br/>value = [9, 14]<br/>class = Phish>, fillcolor="#b8dcf6"] ;
621 -> 623 ;
624 [label=<gini = 0.0<br/>samples = 3<br/>value = [0, 3]<br/>class = Phish>, fillcolor="#399de5"] ;
623 -> 624 ;
625 [label=<dnsrecord &le; 0.0<br/>gini = 0.495<br/>samples = 12<br/>value = [9, 11]<br/>class = Phish>, fillcolor="#dbedfa"] ;
623 -> 625 ;
626 [label=<links_pointing_to_page &le; 0.5<br/>gini = 0.48<br/>samples = 3<br/>value = [2, 3]<br/>class = Phish>, fillcolor="#bddef6"] ;
625 -> 626 ;
627 [label=<gini = 0.0<br/>samples = 2<br/>value = [2, 0]<br/>class = Legit>, fillcolor="#e58139"] ;
626 -> 627 ;
628 [label=<gini = 0.0<br/>samples = 1<br/>value = [0, 3]<br/>class = Phish>, fillcolor="#399de5"] ;
626 -> 628 ;
629 [label=<https_token &le; 0.0<br/>gini = 0.498<br/>samples = 9<br/>value = [7, 8]<br/>class = Phish>, fillcolor="#e6f3fc"] ;
625 -> 629 ;
630 [label=<gini = 0.0<br/>samples = 1<br/>value = [1, 0]<br/>class = Legit>, fillcolor="#e58139"] ;
629 -> 630 ;
631 [label=<links_pointing_to_page &le; 0.5<br/>gini = 0.49<br/>samples = 8<br/>value = [6, 8]<br/>class = Phish>, fillcolor="#cee6f8"] ;
629 -> 631 ;
632 [label=<gini = 0.5<br/>samples = 7<br/>value = [6, 6]<br/>class = Legit>, fillcolor="#ffffff"] ;
631 -> 632 ;
633 [label=<gini = 0.0<br/>samples = 1<br/>value = [0, 2]<br/>class = Phish>, fillcolor="#399de5"] ;
631 -> 633 ;
634 [label=<sslfinal_state &le; -0.5<br/>gini = 0.444<br/>samples = 49<br/>value = [26, 52]<br/>class = Phish>, fillcolor="#9ccef2"] ;
600 -> 634 ;
635 [label=<gini = 0.0<br/>samples = 7<br/>value = [9, 0]<br/>class = Legit>, fillcolor="#e58139"] ;
634 -> 635 ;
636 [label=<google_index &le; 0.0<br/>gini = 0.371<br/>samples = 42<br/>value = [17, 52]<br/>class = Phish>, fillcolor="#7abdee"] ;
634 -> 636 ;
637 [label=<links_pointing_to_page &le; 0.5<br/>gini = 0.245<br/>samples = 5<br/>value = [6, 1]<br/>class = Legit>, fillcolor="#e9965a"] ;
636 -> 637 ;
638 [label=<gini = 0.0<br/>samples = 4<br/>value = [6, 0]<br/>class = Legit>, fillcolor="#e58139"] ;
637 -> 638 ;
639 [label=<gini = 0.0<br/>samples = 1<br/>value = [0, 1]<br/>class = Phish>, fillcolor="#399de5"] ;
637 -> 639 ;
640 [label=<shortining_service &le; 0.0<br/>gini = 0.292<br/>samples = 37<br/>value = [11, 51]<br/>class = Phish>, fillcolor="#64b2eb"] ;
636 -> 640 ;
641 [label=<gini = 0.0<br/>samples = 1<br/>value = [0, 1]<br/>class = Phish>, fillcolor="#399de5"] ;
640 -> 641 ;
642 [label=<having_sub_domain &le; 0.5<br/>gini = 0.296<br/>samples = 36<br/>value = [11, 50]<br/>class = Phish>, fillcolor="#65b3eb"] ;
640 -> 642 ;
643 [label=<sslfinal_state &le; 0.5<br/>gini = 0.438<br/>samples = 18<br/>value = [11, 23]<br/>class = Phish>, fillcolor="#98ccf1"] ;
642 -> 643 ;
644 [label=<gini = 0.0<br/>samples = 2<br/>value = [3, 0]<br/>class = Legit>, fillcolor="#e58139"] ;
643 -> 644 ;
645 [label=<dnsrecord &le; 0.0<br/>gini = 0.383<br/>samples = 16<br/>value = [8, 23]<br/>class = Phish>, fillcolor="#7ebfee"] ;
643 -> 645 ;
646 [label=<having_sub_domain &le; -0.5<br/>gini = 0.5<br/>samples = 5<br/>value = [4, 4]<br/>class = Legit>, fillcolor="#ffffff"] ;
645 -> 646 ;
647 [label=<gini = 0.0<br/>samples = 1<br/>value = [0, 1]<br/>class = Phish>, fillcolor="#399de5"] ;
646 -> 647 ;
648 [label=<gini = 0.49<br/>samples = 4<br/>value = [4, 3]<br/>class = Legit>, fillcolor="#f8e0ce"] ;
646 -> 648 ;
649 [label=<having_sub_domain &le; -0.5<br/>gini = 0.287<br/>samples = 11<br/>value = [4, 19]<br/>class = Phish>, fillcolor="#63b2ea"] ;
645 -> 649 ;
650 [label=<gini = 0.219<br/>samples = 5<br/>value = [1, 7]<br/>class = Phish>, fillcolor="#55abe9"] ;
649 -> 650 ;
651 [label=<gini = 0.32<br/>samples = 6<br/>value = [3, 12]<br/>class = Phish>, fillcolor="#6ab6ec"] ;
649 -> 651 ;
652 [label=<gini = 0.0<br/>samples = 18<br/>value = [0, 27]<br/>class = Phish>, fillcolor="#399de5"] ;
642 -> 652 ;
653 [label=<gini = 0.0<br/>samples = 11<br/>value = [0, 13]<br/>class = Phish>, fillcolor="#399de5"] ;
595 -> 653 ;
654 [label=<page_rank &le; 0.0<br/>gini = 0.121<br/>samples = 18<br/>value = [2, 29]<br/>class = Phish>, fillcolor="#47a4e7"] ;
516 -> 654 ;
655 [label=<age_of_domain &le; 0.0<br/>gini = 0.198<br/>samples = 11<br/>value = [2, 16]<br/>class = Phish>, fillcolor="#52a9e8"] ;
654 -> 655 ;
656 [label=<https_token &le; 0.0<br/>gini = 0.32<br/>samples = 6<br/>value = [2, 8]<br/>class = Phish>, fillcolor="#6ab6ec"] ;
655 -> 656 ;
657 [label=<gini = 0.0<br/>samples = 1<br/>value = [2, 0]<br/>class = Legit>, fillcolor="#e58139"] ;
656 -> 657 ;
658 [label=<gini = 0.0<br/>samples = 5<br/>value = [0, 8]<br/>class = Phish>, fillcolor="#399de5"] ;
656 -> 658 ;
659 [label=<gini = 0.0<br/>samples = 5<br/>value = [0, 8]<br/>class = Phish>, fillcolor="#399de5"] ;
655 -> 659 ;
660 [label=<gini = 0.0<br/>samples = 7<br/>value = [0, 13]<br/>class = Phish>, fillcolor="#399de5"] ;
654 -> 660 ;
661 [label=<sslfinal_state &le; 0.5<br/>gini = 0.211<br/>samples = 47<br/>value = [9, 66]<br/>class = Phish>, fillcolor="#54aae9"] ;
515 -> 661 ;
662 [label=<gini = 0.0<br/>samples = 7<br/>value = [9, 0]<br/>class = Legit>, fillcolor="#e58139"] ;
661 -> 662 ;
663 [label=<gini = 0.0<br/>samples = 40<br/>value = [0, 66]<br/>class = Phish>, fillcolor="#399de5"] ;
661 -> 663 ;
664 [label=<url_of_anchor &le; 0.5<br/>gini = 0.201<br/>samples = 992<br/>value = [183, 1435]<br/>class = Phish>, fillcolor="#52a9e8"] ;
502 -> 664 ;
665 [label=<sslfinal_state &le; 0.5<br/>gini = 0.251<br/>samples = 688<br/>value = [165, 956]<br/>class = Phish>, fillcolor="#5baee9"] ;
664 -> 665 ;
666 [label=<google_index &le; 0.0<br/>gini = 0.495<br/>samples = 124<br/>value = [93, 114]<br/>class = Phish>, fillcolor="#dbedfa"] ;
665 -> 666 ;
667 [label=<sslfinal_state &le; -0.5<br/>gini = 0.153<br/>samples = 14<br/>value = [22, 2]<br/>class = Legit>, fillcolor="#e78c4b"] ;
666 -> 667 ;
668 [label=<page_rank &le; 0.0<br/>gini = 0.159<br/>samples = 13<br/>value = [21, 2]<br/>class = Legit>, fillcolor="#e78d4c"] ;
667 -> 668 ;
669 [label=<https_token &le; 0.0<br/>gini = 0.198<br/>samples = 11<br/>value = [16, 2]<br/>class = Legit>, fillcolor="#e89152"] ;
668 -> 669 ;
670 [label=<gini = 0.0<br/>samples = 2<br/>value = [0, 2]<br/>class = Phish>, fillcolor="#399de5"] ;
669 -> 670 ;
671 [label=<gini = 0.0<br/>samples = 9<br/>value = [16, 0]<br/>class = Legit>, fillcolor="#e58139"] ;
669 -> 671 ;
672 [label=<gini = 0.0<br/>samples = 2<br/>value = [5, 0]<br/>class = Legit>, fillcolor="#e58139"] ;
668 -> 672 ;
673 [label=<gini = 0.0<br/>samples = 1<br/>value = [1, 0]<br/>class = Legit>, fillcolor="#e58139"] ;
667 -> 673 ;
674 [label=<redirect &le; 0.5<br/>gini = 0.475<br/>samples = 110<br/>value = [71, 112]<br/>class = Phish>, fillcolor="#b7dbf5"] ;
666 -> 674 ;
675 [label=<web_traffic &le; 0.5<br/>gini = 0.47<br/>samples = 106<br/>value = [66, 109]<br/>class = Phish>, fillcolor="#b1d8f5"] ;
674 -> 675 ;
676 [label=<dnsrecord &le; 0.0<br/>gini = 0.499<br/>samples = 50<br/>value = [47.0, 44.0]<br/>class = Legit>, fillcolor="#fdf7f2"] ;
675 -> 676 ;
677 [label=<links_in_tags &le; 0.5<br/>gini = 0.26<br/>samples = 15<br/>value = [22, 4]<br/>class = Legit>, fillcolor="#ea985d"] ;
676 -> 677 ;
678 [label=<web_traffic &le; -0.5<br/>gini = 0.1<br/>samples = 12<br/>value = [18, 1]<br/>class = Legit>, fillcolor="#e68844"] ;
677 -> 678 ;
679 [label=<gini = 0.0<br/>samples = 2<br/>value = [2, 0]<br/>class = Legit>, fillcolor="#e58139"] ;
678 -> 679 ;
680 [label=<age_of_domain &le; 0.0<br/>gini = 0.111<br/>samples = 10<br/>value = [16, 1]<br/>class = Legit>, fillcolor="#e78945"] ;
678 -> 680 ;
681 [label=<gini = 0.0<br/>samples = 4<br/>value = [7, 0]<br/>class = Legit>, fillcolor="#e58139"] ;
680 -> 681 ;
682 [label=<having_sub_domain &le; 0.0<br/>gini = 0.18<br/>samples = 6<br/>value = [9, 1]<br/>class = Legit>, fillcolor="#e88f4f"] ;
680 -> 682 ;
683 [label=<gini = 0.0<br/>samples = 2<br/>value = [3, 0]<br/>class = Legit>, fillcolor="#e58139"] ;
682 -> 683 ;
684 [label=<statistical_report &le; 0.0<br/>gini = 0.245<br/>samples = 4<br/>value = [6, 1]<br/>class = Legit>, fillcolor="#e9965a"] ;
682 -> 684 ;
685 [label=<gini = 0.0<br/>samples = 1<br/>value = [1, 0]<br/>class = Legit>, fillcolor="#e58139"] ;
684 -> 685 ;
686 [label=<on_mouseover &le; 0.0<br/>gini = 0.278<br/>samples = 3<br/>value = [5, 1]<br/>class = Legit>, fillcolor="#ea9a61"] ;
684 -> 686 ;
687 [label=<gini = 0.0<br/>samples = 2<br/>value = [5, 0]<br/>class = Legit>, fillcolor="#e58139"] ;
686 -> 687 ;
688 [label=<gini = 0.0<br/>samples = 1<br/>value = [0, 1]<br/>class = Phish>, fillcolor="#399de5"] ;
686 -> 688 ;
689 [label=<links_pointing_to_page &le; 0.5<br/>gini = 0.49<br/>samples = 3<br/>value = [4, 3]<br/>class = Legit>, fillcolor="#f8e0ce"] ;
677 -> 689 ;
690 [label=<gini = 0.0<br/>samples = 2<br/>value = [4, 0]<br/>class = Legit>, fillcolor="#e58139"] ;
689 -> 690 ;
691 [label=<gini = 0.0<br/>samples = 1<br/>value = [0, 3]<br/>class = Phish>, fillcolor="#399de5"] ;
689 -> 691 ;
692 [label=<sfh &le; 0.5<br/>gini = 0.473<br/>samples = 35<br/>value = [25, 40]<br/>class = Phish>, fillcolor="#b5daf5"] ;
676 -> 692 ;
693 [label=<sslfinal_state &le; -0.5<br/>gini = 0.451<br/>samples = 33<br/>value = [21, 40]<br/>class = Phish>, fillcolor="#a1d0f3"] ;
692 -> 693 ;
694 [label=<statistical_report &le; 0.0<br/>gini = 0.3<br/>samples = 28<br/>value = [9, 40]<br/>class = Phish>, fillcolor="#66b3eb"] ;
693 -> 694 ;
695 [label=<gini = 0.0<br/>samples = 5<br/>value = [0, 7]<br/>class = Phish>, fillcolor="#399de5"] ;
694 -> 695 ;
696 [label=<links_pointing_to_page &le; 0.5<br/>gini = 0.337<br/>samples = 23<br/>value = [9, 33]<br/>class = Phish>, fillcolor="#6fb8ec"] ;
694 -> 696 ;
697 [label=<url_length &le; 0.0<br/>gini = 0.368<br/>samples = 19<br/>value = [9, 28]<br/>class = Phish>, fillcolor="#79bced"] ;
696 -> 697 ;
698 [label=<age_of_domain &le; 0.0<br/>gini = 0.472<br/>samples = 12<br/>value = [8, 13]<br/>class = Phish>, fillcolor="#b3d9f5"] ;
697 -> 698 ;
699 [label=<https_token &le; 0.0<br/>gini = 0.48<br/>samples = 8<br/>value = [6, 9]<br/>class = Phish>, fillcolor="#bddef6"] ;
698 -> 699 ;
700 [label=<gini = 0.0<br/>samples = 1<br/>value = [1, 0]<br/>class = Legit>, fillcolor="#e58139"] ;
699 -> 700 ;
701 [label=<page_rank &le; 0.0<br/>gini = 0.459<br/>samples = 7<br/>value = [5, 9]<br/>class = Phish>, fillcolor="#a7d3f3"] ;
699 -> 701 ;
702 [label=<links_in_tags &le; 0.5<br/>gini = 0.42<br/>samples = 5<br/>value = [3, 7]<br/>class = Phish>, fillcolor="#8ec7f0"] ;
701 -> 702 ;
703 [label=<having_sub_domain &le; 0.0<br/>gini = 0.48<br/>samples = 3<br/>value = [3, 2]<br/>class = Legit>, fillcolor="#f6d5bd"] ;
702 -> 703 ;
704 [label=<gini = 0.0<br/>samples = 2<br/>value = [3, 0]<br/>class = Legit>, fillcolor="#e58139"] ;
703 -> 704 ;
705 [label=<gini = 0.0<br/>samples = 1<br/>value = [0, 2]<br/>class = Phish>, fillcolor="#399de5"] ;
703 -> 705 ;
706 [label=<gini = 0.0<br/>samples = 2<br/>value = [0, 5]<br/>class = Phish>, fillcolor="#399de5"] ;
702 -> 706 ;
707 [label=<having_at_symbol &le; 0.0<br/>gini = 0.5<br/>samples = 2<br/>value = [2, 2]<br/>class = Legit>, fillcolor="#ffffff"] ;
701 -> 707 ;
708 [label=<gini = 0.0<br/>samples = 1<br/>value = [0, 2]<br/>class = Phish>, fillcolor="#399de5"] ;
707 -> 708 ;
709 [label=<gini = 0.0<br/>samples = 1<br/>value = [2, 0]<br/>class = Legit>, fillcolor="#e58139"] ;
707 -> 709 ;
710 [label=<having_sub_domain &le; 0.0<br/>gini = 0.444<br/>samples = 4<br/>value = [2, 4]<br/>class = Phish>, fillcolor="#9ccef2"] ;
698 -> 710 ;
711 [label=<gini = 0.0<br/>samples = 1<br/>value = [2, 0]<br/>class = Legit>, fillcolor="#e58139"] ;
710 -> 711 ;
712 [label=<gini = 0.0<br/>samples = 3<br/>value = [0, 4]<br/>class = Phish>, fillcolor="#399de5"] ;
710 -> 712 ;
713 [label=<sfh &le; -0.5<br/>gini = 0.117<br/>samples = 7<br/>value = [1, 15]<br/>class = Phish>, fillcolor="#46a4e7"] ;
697 -> 713 ;
714 [label=<gini = 0.0<br/>samples = 6<br/>value = [0, 15]<br/>class = Phish>, fillcolor="#399de5"] ;
713 -> 714 ;
715 [label=<gini = 0.0<br/>samples = 1<br/>value = [1, 0]<br/>class = Legit>, fillcolor="#e58139"] ;
713 -> 715 ;
716 [label=<gini = 0.0<br/>samples = 4<br/>value = [0, 5]<br/>class = Phish>, fillcolor="#399de5"] ;
696 -> 716 ;
717 [label=<gini = 0.0<br/>samples = 5<br/>value = [12, 0]<br/>class = Legit>, fillcolor="#e58139"] ;
693 -> 717 ;
718 [label=<gini = 0.0<br/>samples = 2<br/>value = [4, 0]<br/>class = Legit>, fillcolor="#e58139"] ;
692 -> 718 ;
719 [label=<url_length &le; 0.0<br/>gini = 0.35<br/>samples = 56<br/>value = [19, 65]<br/>class = Phish>, fillcolor="#73baed"] ;
675 -> 719 ;
720 [label=<sslfinal_state &le; -0.5<br/>gini = 0.5<br/>samples = 24<br/>value = [17, 16]<br/>class = Legit>, fillcolor="#fdf8f3"] ;
719 -> 720 ;
721 [label=<having_sub_domain &le; 0.5<br/>gini = 0.495<br/>samples = 22<br/>value = [13, 16]<br/>class = Phish>, fillcolor="#daedfa"] ;
720 -> 721 ;
722 [label=<dnsrecord &le; 0.0<br/>gini = 0.483<br/>samples = 20<br/>value = [11, 16]<br/>class = Phish>, fillcolor="#c1e0f7"] ;
721 -> 722 ;
723 [label=<gini = 0.0<br/>samples = 2<br/>value = [2, 0]<br/>class = Legit>, fillcolor="#e58139"] ;
722 -> 723 ;
724 [label=<links_in_tags &le; 0.5<br/>gini = 0.461<br/>samples = 18<br/>value = [9, 16]<br/>class = Phish>, fillcolor="#a8d4f4"] ;
722 -> 724 ;
725 [label=<age_of_domain &le; 0.0<br/>gini = 0.49<br/>samples = 11<br/>value = [8, 6]<br/>class = Legit>, fillcolor="#f8e0ce"] ;
724 -> 725 ;
726 [label=<having_sub_domain &le; -0.5<br/>gini = 0.375<br/>samples = 6<br/>value = [6, 2]<br/>class = Legit>, fillcolor="#eeab7b"] ;
725 -> 726 ;
727 [label=<gini = 0.0<br/>samples = 2<br/>value = [3, 0]<br/>class = Legit>, fillcolor="#e58139"] ;
726 -> 727 ;
728 [label=<page_rank &le; 0.0<br/>gini = 0.48<br/>samples = 4<br/>value = [3, 2]<br/>class = Legit>, fillcolor="#f6d5bd"] ;
726 -> 728 ;
729 [label=<gini = 0.444<br/>samples = 3<br/>value = [1, 2]<br/>class = Phish>, fillcolor="#9ccef2"] ;
728 -> 729 ;
730 [label=<gini = 0.0<br/>samples = 1<br/>value = [2, 0]<br/>class = Legit>, fillcolor="#e58139"] ;
728 -> 730 ;
731 [label=<links_pointing_to_page &le; 0.5<br/>gini = 0.444<br/>samples = 5<br/>value = [2, 4]<br/>class = Phish>, fillcolor="#9ccef2"] ;
725 -> 731 ;
732 [label=<having_at_symbol &le; 0.0<br/>gini = 0.48<br/>samples = 4<br/>value = [2, 3]<br/>class = Phish>, fillcolor="#bddef6"] ;
731 -> 732 ;
733 [label=<gini = 0.5<br/>samples = 2<br/>value = [1, 1]<br/>class = Legit>, fillcolor="#ffffff"] ;
732 -> 733 ;
734 [label=<gini = 0.444<br/>samples = 2<br/>value = [1, 2]<br/>class = Phish>, fillcolor="#9ccef2"] ;
732 -> 734 ;
735 [label=<gini = 0.0<br/>samples = 1<br/>value = [0, 1]<br/>class = Phish>, fillcolor="#399de5"] ;
731 -> 735 ;
736 [label=<links_pointing_to_page &le; -0.5<br/>gini = 0.165<br/>samples = 7<br/>value = [1, 10]<br/>class = Phish>, fillcolor="#4da7e8"] ;
724 -> 736 ;
737 [label=<gini = 0.0<br/>samples = 1<br/>value = [1, 0]<br/>class = Legit>, fillcolor="#e58139"] ;
736 -> 737 ;
738 [label=<gini = 0.0<br/>samples = 6<br/>value = [0, 10]<br/>class = Phish>, fillcolor="#399de5"] ;
736 -> 738 ;
739 [label=<gini = 0.0<br/>samples = 2<br/>value = [2, 0]<br/>class = Legit>, fillcolor="#e58139"] ;
721 -> 739 ;
740 [label=<gini = 0.0<br/>samples = 2<br/>value = [4, 0]<br/>class = Legit>, fillcolor="#e58139"] ;
720 -> 740 ;
741 [label=<links_in_tags &le; 0.5<br/>gini = 0.075<br/>samples = 32<br/>value = [2, 49]<br/>class = Phish>, fillcolor="#41a1e6"] ;
719 -> 741 ;
742 [label=<gini = 0.0<br/>samples = 22<br/>value = [0, 38]<br/>class = Phish>, fillcolor="#399de5"] ;
741 -> 742 ;
743 [label=<having_sub_domain &le; 0.5<br/>gini = 0.26<br/>samples = 10<br/>value = [2, 11]<br/>class = Phish>, fillcolor="#5dafea"] ;
741 -> 743 ;
744 [label=<dnsrecord &le; 0.0<br/>gini = 0.153<br/>samples = 9<br/>value = [1, 11]<br/>class = Phish>, fillcolor="#4ba6e7"] ;
743 -> 744 ;
745 [label=<gini = 0.0<br/>samples = 1<br/>value = [1, 0]<br/>class = Legit>, fillcolor="#e58139"] ;
744 -> 745 ;
746 [label=<gini = 0.0<br/>samples = 8<br/>value = [0, 11]<br/>class = Phish>, fillcolor="#399de5"] ;
744 -> 746 ;
747 [label=<gini = 0.0<br/>samples = 1<br/>value = [1, 0]<br/>class = Legit>, fillcolor="#e58139"] ;
743 -> 747 ;
748 [label=<abnormal_url &le; 0.0<br/>gini = 0.469<br/>samples = 4<br/>value = [5, 3]<br/>class = Legit>, fillcolor="#f5cdb0"] ;
674 -> 748 ;
749 [label=<gini = 0.0<br/>samples = 1<br/>value = [0, 3]<br/>class = Phish>, fillcolor="#399de5"] ;
748 -> 749 ;
750 [label=<gini = 0.0<br/>samples = 3<br/>value = [5, 0]<br/>class = Legit>, fillcolor="#e58139"] ;
748 -> 750 ;
751 [label=<dnsrecord &le; 0.0<br/>gini = 0.145<br/>samples = 564<br/>value = [72, 842]<br/>class = Phish>, fillcolor="#4aa5e7"] ;
665 -> 751 ;
752 [label=<statistical_report &le; 0.0<br/>gini = 0.329<br/>samples = 133<br/>value = [45, 172]<br/>class = Phish>, fillcolor="#6db7ec"] ;
751 -> 752 ;
753 [label=<shortining_service &le; 0.0<br/>gini = 0.12<br/>samples = 26<br/>value = [3.0, 44.0]<br/>class = Phish>, fillcolor="#46a4e7"] ;
752 -> 753 ;
754 [label=<gini = 0.0<br/>samples = 1<br/>value = [0, 2]<br/>class = Phish>, fillcolor="#399de5"] ;
753 -> 754 ;
755 [label=<iframe &le; 0.0<br/>gini = 0.124<br/>samples = 25<br/>value = [3, 42]<br/>class = Phish>, fillcolor="#47a4e7"] ;
753 -> 755 ;
756 [label=<gini = 0.0<br/>samples = 21<br/>value = [0, 35]<br/>class = Phish>, fillcolor="#399de5"] ;
755 -> 756 ;
757 [label=<sfh &le; 0.0<br/>gini = 0.42<br/>samples = 4<br/>value = [3, 7]<br/>class = Phish>, fillcolor="#8ec7f0"] ;
755 -> 757 ;
758 [label=<gini = 0.0<br/>samples = 2<br/>value = [0, 7]<br/>class = Phish>, fillcolor="#399de5"] ;
757 -> 758 ;
759 [label=<gini = 0.0<br/>samples = 2<br/>value = [3, 0]<br/>class = Legit>, fillcolor="#e58139"] ;
757 -> 759 ;
760 [label=<page_rank &le; 0.0<br/>gini = 0.372<br/>samples = 107<br/>value = [42, 128]<br/>class = Phish>, fillcolor="#7abdee"] ;
752 -> 760 ;
761 [label=<favicon &le; 0.0<br/>gini = 0.434<br/>samples = 83<br/>value = [42, 90]<br/>class = Phish>, fillcolor="#95cbf1"] ;
760 -> 761 ;
762 [label=<web_traffic &le; 0.5<br/>gini = 0.278<br/>samples = 18<br/>value = [5, 25]<br/>class = Phish>, fillcolor="#61b1ea"] ;
761 -> 762 ;
763 [label=<submitting_to_email &le; 0.0<br/>gini = 0.486<br/>samples = 8<br/>value = [5, 7]<br/>class = Phish>, fillcolor="#c6e3f8"] ;
762 -> 763 ;
764 [label=<gini = 0.0<br/>samples = 2<br/>value = [4, 0]<br/>class = Legit>, fillcolor="#e58139"] ;
763 -> 764 ;
765 [label=<having_sub_domain &le; 0.0<br/>gini = 0.219<br/>samples = 6<br/>value = [1, 7]<br/>class = Phish>, fillcolor="#55abe9"] ;
763 -> 765 ;
766 [label=<age_of_domain &le; 0.0<br/>gini = 0.5<br/>samples = 2<br/>value = [1, 1]<br/>class = Legit>, fillcolor="#ffffff"] ;
765 -> 766 ;
767 [label=<gini = 0.0<br/>samples = 1<br/>value = [1, 0]<br/>class = Legit>, fillcolor="#e58139"] ;
766 -> 767 ;
768 [label=<gini = 0.0<br/>samples = 1<br/>value = [0, 1]<br/>class = Phish>, fillcolor="#399de5"] ;
766 -> 768 ;
769 [label=<gini = 0.0<br/>samples = 4<br/>value = [0, 6]<br/>class = Phish>, fillcolor="#399de5"] ;
765 -> 769 ;
770 [label=<gini = 0.0<br/>samples = 10<br/>value = [0, 18]<br/>class = Phish>, fillcolor="#399de5"] ;
762 -> 770 ;
771 [label=<sfh &le; 0.0<br/>gini = 0.462<br/>samples = 65<br/>value = [37, 65]<br/>class = Phish>, fillcolor="#aad5f4"] ;
761 -> 771 ;
